{"learner":{"attributes":{"best_iteration":"99","best_ntree_limit":"100","scikit_learn":"{\"use_label_encoder\": null, \"n_estimators\": 100, \"objective\": \"binary:logistic\", \"max_depth\": null, \"max_leaves\": null, \"max_bin\": null, \"grow_policy\": null, \"learning_rate\": null, \"verbosity\": null, \"booster\": null, \"tree_method\": null, \"gamma\": null, \"min_child_weight\": null, \"max_delta_step\": null, \"subsample\": null, \"sampling_method\": null, \"colsample_bytree\": null, \"colsample_bylevel\": null, \"colsample_bynode\": null, \"reg_alpha\": null, \"reg_lambda\": null, \"scale_pos_weight\": null, \"base_score\": null, \"missing\": NaN, \"num_parallel_tree\": null, \"random_state\": null, \"n_jobs\": null, \"monotone_constraints\": null, \"interaction_constraints\": null, \"importance_type\": null, \"gpu_id\": null, \"validate_parameters\": null, \"predictor\": null, \"enable_categorical\": false, \"feature_types\": null, \"max_cat_to_onehot\": null, \"max_cat_threshold\": null, \"eval_metric\": null, \"early_stopping_rounds\": null, \"callbacks\": null, \"classes_\": [0.0, 1.0], \"n_classes_\": 2, \"_estimator_type\": \"classifier\"}"},"feature_names":[],"feature_types":[],"gradient_booster":{"model":{"gbtree_model_param":{"num_parallel_tree":"1","num_trees":"100","size_leaf_vector":"0"},"tree_info":[0,0,0,0,0,0,0,0,0,0,0,0,0,0,0,0,0,0,0,0,0,0,0,0,0,0,0,0,0,0,0,0,0,0,0,0,0,0,0,0,0,0,0,0,0,0,0,0,0,0,0,0,0,0,0,0,0,0,0,0,0,0,0,0,0,0,0,0,0,0,0,0,0,0,0,0,0,0,0,0,0,0,0,0,0,0,0,0,0,0,0,0,0,0,0,0,0,0,0,0],"trees":[{"base_weights":[-1.9679447E-8,5.8186257E-1,-1.9913515E0,-5.054593E-1,1.1703615E0,-1.4189414E0,-5.999986E-1,-7.3875314E-1,8.2847965E-1,8.1570286E-1,1.4428616E0,-1.5905694E0,1.2508172E-1,-8.997789E-1,3.5627905E-2,4.2701572E-1,1.4303788E0,9.8950654E-2,1.2452501E0,1.5264559E0,-2.7749524E-1,-1.7368698E0,-5.610562E-1,-6.304574E-1,5.342727E-1,-1.035423E0,-5.3683114E-1,-1.9609348E-1,6.0154486E-1,8.804859E-2,9.674484E-1,1.1530441E0,1.6012288E0,-2.6331753E-1,4.076608E-1,8.9171153E-1,1.4639674E0,1.5707686E0,4.7467387E-1,6.3321465E-1,-7.0045465E-1,-1.82825E0,-1.4092237E0,-9.9404365E-1,2.4336097E-1,-1.0017079E0,-5.7379246E-2,7.483888E-1,-1.126133E0,-3.553948E-1,-2.3092215E-1,-2.1117039E-1,-6.0672764E-2,-1.2025074E-1,1.3831866E-1,1.1172099E-1,3.3059505E-1,-3.558275E-2,1.1733137E-1,2.4650373E-1,4.5106116E-1,2.8544933E-1,4.098973E-1,4.879854E-1,1.4610822E-1,-2.270977E-1,9.201576E-3,1.153452E-2,2.3946576E-1,7.5120315E-2,4.0653476E-1,2.6441815E-1,4.7203806E-1,3.2002497E-1,4.9689183E-1,4.070759E-1,3.168697E-3,2.724872E-1,9.9823825E-2,-7.4007753E-3,-2.9223165E-1,-5.556863E-1,-4.761258E-1,-4.7494748E-1,-2.730034E-1,-3.7206304E-1,1.9115847E-2,-9.1862775E-2,2.3804048E-1,-3.5338578E-1,-1.1545029E-1,3.8071286E-2,-1.8084763E-1,1.210184E-1,3.2500032E-1,-2.5067765E-1,-3.8688228E-1],"categories":[],"categories_nodes":[],"categories_segments":[],"categories_sizes":[],"default_left":[0,0,0,0,0,0,0,0,0,0,0,0,0,0,0,0,0,0,0,0,0,0,0,0,0,0,0,0,0,0,0,0,0,0,0,0,0,0,0,0,0,0,0,0,0,0,0,0,0,0,0,0,0,0,0,0,0,0,0,0,0,0,0,0,0,0,0,0,0,0,0,0,0,0,0,0,0,0,0,0,0,0,0,0,0,0,0,0,0,0,0,0,0,0,0,0,0],"id":0,"left_children":[1,3,5,7,9,11,-1,13,15,17,19,21,23,25,27,29,31,33,35,37,39,41,43,45,47,49,51,53,55,57,59,61,63,65,67,69,71,73,75,77,79,81,83,85,87,89,91,93,95,-1,-1,-1,-1,-1,-1,-1,-1,-1,-1,-1,-1,-1,-1,-1,-1,-1,-1,-1,-1,-1,-1,-1,-1,-1,-1,-1,-1,-1,-1,-1,-1,-1,-1,-1,-1,-1,-1,-1,-1,-1,-1,-1,-1,-1,-1,-1,-1],"loss_changes":[2.1706695E6,9.276869E5,2.093125E3,1.5843711E5,9.0907375E4,1.6710215E3,0E0,5.4034266E4,1.8312352E4,1.2583434E5,7.649925E4,8.536914E2,1.956217E2,1.7660562E4,9.782355E3,8.328415E3,1.4349375E3,1.7128502E4,1.9759781E4,2.3642625E4,9.495667E3,1.4616406E2,2.4667009E2,4.7253746E1,1.4670886E2,1.0352406E4,5.4555312E3,7.121301E3,2.484663E3,1.7499517E3,1.3681934E3,4.957373E2,5.299297E2,1.0227168E4,1.1923953E4,2.902807E4,1.0069469E4,2.09845E4,8.398E3,6.458843E2,3.112954E3,1.9560547E1,9.3008545E1,1.1989273E2,7.533171E1,1.4211945E1,8.970629E0,4.1627655E1,1.1672859E0,0E0,0E0,0E0,0E0,0E0,0E0,0E0,0E0,0E0,0E0,0E0,0E0,0E0,0E0,0E0,0E0,0E0,0E0,0E0,0E0,0E0,0E0,0E0,0E0,0E0,0E0,0E0,0E0,0E0,0E0,0E0,0E0,0E0,0E0,0E0,0E0,0E0,0E0,0E0,0E0,0E0,0E0,0E0,0E0,0E0,0E0,0E0,0E0],"parents":[2147483647,0,0,1,1,2,2,3,3,4,4,5,5,7,7,8,8,9,9,10,10,11,11,12,12,13,13,14,14,15,15,16,16,17,17,18,18,19,19,20,20,21,21,22,22,23,23,24,24,25,25,26,26,27,27,28,28,29,29,30,30,31,31,32,32,33,33,34,34,35,35,36,36,37,37,38,38,39,39,40,40,41,41,42,42,43,43,44,44,45,45,46,46,47,47,48,48],"right_children":[2,4,6,8,10,12,-1,14,16,18,20,22,24,26,28,30,32,34,36,38,40,42,44,46,48,50,52,54,56,58,60,62,64,66,68,70,72,74,76,78,80,82,84,86,88,90,92,94,96,-1,-1,-1,-1,-1,-1,-1,-1,-1,-1,-1,-1,-1,-1,-1,-1,-1,-1,-1,-1,-1,-1,-1,-1,-1,-1,-1,-1,-1,-1,-1,-1,-1,-1,-1,-1,-1,-1,-1,-1,-1,-1,-1,-1,-1,-1,-1,-1],"split_conditions":[6.706783E-1,-5.045266E-1,6.968431E-1,8.911273E-2,-3.240132E-2,3.062252E-1,-5.999986E-1,-2.2788534E-1,3.9406943E-1,1.1411431E-2,1.8312155E0,1.2577379E-1,-3.5018736E-1,-2.4679123E-1,-3.0878875E-1,-4.7128838E-1,5.684488E-1,-3.490751E-1,-6.779144E-1,1.9932216E0,7.3341584E-1,-4.4997087E-1,-4.4329506E-1,5.326769E-1,1.8312155E0,-5.825981E-1,-5.7745093E-1,1.12872735E-1,2.1615736E-2,2.3061498E-1,1.2080061E0,-5.3392416E-1,1.8312155E0,-4.90664E-1,-3.482232E-1,1.0911427E0,4.993961E-2,-3.8997456E-1,7.3341584E-1,6.5128857E-1,6.595079E-1,2.9217316E-2,-1.2447575E-2,1.7006768E0,3.9457572E-1,-3.741478E-1,1.3888625E0,-3.6633793E-2,5.119522E-1,-3.553948E-1,-2.3092215E-1,-2.1117039E-1,-6.0672764E-2,-1.2025074E-1,1.3831866E-1,1.1172099E-1,3.3059505E-1,-3.558275E-2,1.1733137E-1,2.4650373E-1,4.5106116E-1,2.8544933E-1,4.098973E-1,4.879854E-1,1.4610822E-1,-2.270977E-1,9.201576E-3,1.153452E-2,2.3946576E-1,7.5120315E-2,4.0653476E-1,2.6441815E-1,4.7203806E-1,3.2002497E-1,4.9689183E-1,4.070759E-1,3.168697E-3,2.724872E-1,9.9823825E-2,-7.4007753E-3,-2.9223165E-1,-5.556863E-1,-4.761258E-1,-4.7494748E-1,-2.730034E-1,-3.7206304E-1,1.9115847E-2,-9.1862775E-2,2.3804048E-1,-3.5338578E-1,-1.1545029E-1,3.8071286E-2,-1.8084763E-1,1.210184E-1,3.2500032E-1,-2.5067765E-1,-3.8688228E-1],"split_indices":[0,25,0,18,18,18,0,15,18,15,18,15,25,18,18,15,18,18,18,17,13,25,18,18,18,19,19,15,15,18,17,15,18,23,15,15,27,25,13,23,17,18,18,15,10,15,23,21,23,0,0,0,0,0,0,0,0,0,0,0,0,0,0,0,0,0,0,0,0,0,0,0,0,0,0,0,0,0,0,0,0,0,0,0,0,0,0,0,0,0,0,0,0,0,0,0,0],"split_type":[0,0,0,0,0,0,0,0,0,0,0,0,0,0,0,0,0,0,0,0,0,0,0,0,0,0,0,0,0,0,0,0,0,0,0,0,0,0,0,0,0,0,0,0,0,0,0,0,0,0,0,0,0,0,0,0,0,0,0,0,0,0,0,0,0,0,0,0,0,0,0,0,0,0,0,0,0,0,0,0,0,0,0,0,0,0,0,0,0,0,0,0,0,0,0,0,0],"sum_hessian":[1.8733756E6,1.449763E6,4.2361253E5,5.0911416E5,9.406489E5,6.3040513E3,4.1730847E5,4.3332925E5,7.57849E4,4.0871306E5,5.319358E5,5.673388E3,6.306633E2,3.587336E5,7.4595664E4,4.5463004E4,3.03219E4,1.5315553E5,2.5555755E5,5.0728628E5,2.464954E4,4.966876E3,7.0651196E2,2.2137357E2,4.0928973E2,2.6113719E5,9.75964E4,5.2925387E4,2.1670271E4,2.7939873E4,1.7523129E4,1.1561794E4,1.8760105E4,7.0465336E4,8.2690195E4,9.7676555E4,1.5788098E5,4.867773E5,2.0508953E4,7.8171885E3,1.683235E4,3.8801304E3,1.0867457E3,4.59139E2,2.4737294E2,1.3388953E2,8.748404E1,3.630254E2,4.6264355E1,1.6721422E5,9.392297E4,6.5092605E4,3.2503797E4,4.0353355E4,1.2572032E4,1.4865417E4,6.8048555E3,1.6612324E4,1.1327549E4,1.3778981E4,3.744147E3,5.947224E3,5.6145693E3,1.8341697E4,4.1840915E2,2.630004E4,4.4165297E4,4.250726E4,4.0182938E4,4.097387E4,5.670268E4,2.4979982E4,1.3290102E5,7.06275E4,4.161498E5,7.069111E3,1.3439843E4,4.079983E3,3.7372053E3,4.85181E3,1.198054E4,3.5223655E3,3.5776477E2,8.043312E2,2.824146E2,3.723191E2,8.681993E1,1.23968666E2,1.2340427E2,1.0342953E2,3.0460007E1,6.596467E1,2.1519373E1,1.7991606E2,1.8310933E2,1.885864E1,2.7405714E1],"tree_param":{"num_deleted":"0","num_feature":"29","num_nodes":"97","size_leaf_vector":"0"}},{"base_weights":[-1.0708956E-3,4.2518833E-1,-1.5465888E0,-3.303385E-1,8.8322103E-1,-1.4008214E0,-4.6464255E-1,-4.9230608E-1,7.312814E-1,5.709502E-1,1.0670289E0,-1.4426099E0,-5.532188E-1,-6.6272867E-1,-3.5937395E-2,4.3678528E-1,1.1311013E0,7.573584E-2,9.776736E-1,1.1342902E0,-4.9363706E-2,-1.4656109E0,-8.0055374E-1,-4.291935E-2,-8.6165327E-1,-7.5708276E-1,-3.094546E-1,-1.8722923E-1,4.962858E-1,1.4444071E-1,7.715627E-1,9.567775E-1,1.2544267E0,-1.299263E-1,5.708754E-1,1.6475233E-1,1.0720011E0,9.202165E-1,1.2993754E0,3.8293487E-1,-6.250901E-1,-1.5006067E0,-1.2975882E0,-1.0911089E0,-4.4780532E-1,1.02664255E-1,-9.7597235E-1,-9.8246586E-1,-4.7177586E-1,-2.7418327E-1,-1.8287659E-1,-1.1435879E-1,9.325539E-2,-1.0896417E-1,7.3149696E-2,1.23866005E-2,1.9587934E-1,-2.1179069E-2,1.2892468E-1,1.0384106E-1,2.7207917E-1,2.0581865E-1,3.1492025E-1,3.8364613E-1,8.872832E-2,-1.6599324E-1,1.6334642E-2,6.854674E-2,2.4238415E-1,3.1342843E-1,-1.441659E-1,2.056551E-1,3.6676675E-1,1.1523457E-1,3.6288258E-1,4.0671268E-1,1.3387786E-1,2.3325442E-1,1.9336015E-2,-1.3520173E-2,-2.3488708E-1,-4.52409E-1,-3.8438046E-1,-4.1229498E-1,-2.0079027E-1,-3.8228956E-1,-2.3217009E-1,-2.8167874E-1,5.0030567E-2,-1.4164722E-1,1.0443454E-1,-9.2619084E-2,-3.3927473E-1,-2.7061924E-1,-4.0740526E-1,-5.631071E-2,-2.904264E-1],"categories":[],"categories_nodes":[],"categories_segments":[],"categories_sizes":[],"default_left":[0,0,0,0,0,0,0,0,0,0,0,0,0,0,0,0,0,0,0,0,0,0,0,0,0,0,0,0,0,0,0,0,0,0,0,0,0,0,0,0,0,0,0,0,0,0,0,0,0,0,0,0,0,0,0,0,0,0,0,0,0,0,0,0,0,0,0,0,0,0,0,0,0,0,0,0,0,0,0,0,0,0,0,0,0,0,0,0,0,0,0,0,0,0,0,0,0],"id":1,"left_children":[1,3,5,7,9,11,-1,13,15,17,19,21,23,25,27,29,31,33,35,37,39,41,43,45,47,49,51,53,55,57,59,61,63,65,67,69,71,73,75,77,79,81,83,85,87,89,91,93,95,-1,-1,-1,-1,-1,-1,-1,-1,-1,-1,-1,-1,-1,-1,-1,-1,-1,-1,-1,-1,-1,-1,-1,-1,-1,-1,-1,-1,-1,-1,-1,-1,-1,-1,-1,-1,-1,-1,-1,-1,-1,-1,-1,-1,-1,-1,-1,-1],"loss_changes":[1.1794332E6,4.8561088E5,1.230625E2,9.107025E4,5.014425E4,2.0518848E2,0E0,3.574004E4,8.254504E3,6.519868E4,4.1294562E4,8.0666016E1,4.322554E1,1.1152391E4,1.0060821E4,3.9512715E3,6.3808594E2,1.4864727E4,1.3628422E4,1.832925E4,7.778177E3,2.9504883E1,1.9380867E1,1.43089E1,7.6035156E0,6.1087188E3,3.1387095E3,7.380545E3,1.9711147E3,1.3224081E3,1.0835498E3,3.0943262E2,4.068164E2,8.0509575E3,3.4770176E3,1.0494861E4,9.265547E3,3.503678E4,1.4073375E4,2.243023E3,1.2271919E3,5.263672E0,4.388452E1,5.1505127E0,2.7096895E1,1.305831E1,1.1202793E0,2.6950989E0,5.801854E0,0E0,0E0,0E0,0E0,0E0,0E0,0E0,0E0,0E0,0E0,0E0,0E0,0E0,0E0,0E0,0E0,0E0,0E0,0E0,0E0,0E0,0E0,0E0,0E0,0E0,0E0,0E0,0E0,0E0,0E0,0E0,0E0,0E0,0E0,0E0,0E0,0E0,0E0,0E0,0E0,0E0,0E0,0E0,0E0,0E0,0E0,0E0,0E0],"parents":[2147483647,0,0,1,1,2,2,3,3,4,4,5,5,7,7,8,8,9,9,10,10,11,11,12,12,13,13,14,14,15,15,16,16,17,17,18,18,19,19,20,20,21,21,22,22,23,23,24,24,25,25,26,26,27,27,28,28,29,29,30,30,31,31,32,32,33,33,34,34,35,35,36,36,37,37,38,38,39,39,40,40,41,41,42,42,43,43,44,44,45,45,46,46,47,47,48,48],"right_children":[2,4,6,8,10,12,-1,14,16,18,20,22,24,26,28,30,32,34,36,38,40,42,44,46,48,50,52,54,56,58,60,62,64,66,68,70,72,74,76,78,80,82,84,86,88,90,92,94,96,-1,-1,-1,-1,-1,-1,-1,-1,-1,-1,-1,-1,-1,-1,-1,-1,-1,-1,-1,-1,-1,-1,-1,-1,-1,-1,-1,-1,-1,-1,-1,-1,-1,-1,-1,-1,-1,-1,-1,-1,-1,-1,-1,-1,-1,-1,-1,-1],"split_conditions":[6.71942E-1,-4.813807E-1,7.0044774E-1,1.5231656E-1,-1.4977981E-1,4.6320093E-1,-4.6464255E-1,-3.3400455E-1,4.329431E-1,2.619851E-1,1.5657872E0,5.710551E-1,3.9987713E-1,-1.440935E-1,-1.995778E-1,-5.232602E-1,6.2296814E-1,9.3808085E-1,-2.8844545E-2,3.1439278E-1,1.5243869E0,-1.3163346E-1,2.619851E-1,1.5657872E0,-2.0698316E-1,-6.431482E-1,1.8240508E-1,-1.779206E-2,-1.438488E0,-6.207123E-1,-1.4655966E0,-6.769256E-1,1.8665397E0,-7.284442E-1,7.081686E-1,2.20835E-1,-9.104313E-1,-2.9116464E-1,1.7453111E0,2.1401232E-2,2.5707397E-1,3.4107602E-1,-1.5239065E-2,-1.6666625E-1,-6.7870694E-1,-2.135508E-1,-1.3613982E0,1.5657872E0,1.4203218E0,-2.7418327E-1,-1.8287659E-1,-1.1435879E-1,9.325539E-2,-1.0896417E-1,7.3149696E-2,1.23866005E-2,1.9587934E-1,-2.1179069E-2,1.2892468E-1,1.0384106E-1,2.7207917E-1,2.0581865E-1,3.1492025E-1,3.8364613E-1,8.872832E-2,-1.6599324E-1,1.6334642E-2,6.854674E-2,2.4238415E-1,3.1342843E-1,-1.441659E-1,2.056551E-1,3.6676675E-1,1.1523457E-1,3.6288258E-1,4.0671268E-1,1.3387786E-1,2.3325442E-1,1.9336015E-2,-1.3520173E-2,-2.3488708E-1,-4.52409E-1,-3.8438046E-1,-4.1229498E-1,-2.0079027E-1,-3.8228956E-1,-2.3217009E-1,-2.8167874E-1,5.0030567E-2,-1.4164722E-1,1.0443454E-1,-9.2619084E-2,-3.3927473E-1,-2.7061924E-1,-4.0740526E-1,-5.631071E-2,-2.904264E-1],"split_indices":[0,25,0,18,18,18,0,15,18,15,18,21,23,18,18,15,18,20,27,18,13,15,15,18,21,19,1,15,27,19,27,25,18,23,27,17,18,15,17,15,17,4,18,18,18,7,27,18,18,0,0,0,0,0,0,0,0,0,0,0,0,0,0,0,0,0,0,0,0,0,0,0,0,0,0,0,0,0,0,0,0,0,0,0,0,0,0,0,0,0,0,0,0,0,0,0,0],"split_type":[0,0,0,0,0,0,0,0,0,0,0,0,0,0,0,0,0,0,0,0,0,0,0,0,0,0,0,0,0,0,0,0,0,0,0,0,0,0,0,0,0,0,0,0,0,0,0,0,0,0,0,0,0,0,0,0,0,0,0,0,0,0,0,0,0,0,0,0,0,0,0,0,0,0,0,0,0,0,0,0,0,0,0,0,0,0,0,0,0,0,0,0,0,0,0,0,0],"sum_hessian":[1.7902968E6,1.4032705E6,3.8702622E5,5.2963525E5,8.736353E5,5.8145356E3,3.812117E5,4.5952734E5,7.010791E4,3.237022E5,5.4993306E5,5.540668E3,2.7386774E2,3.3458297E5,1.24944375E5,4.037264E4,2.9735266E4,1.4597208E5,1.7773012E5,5.1868306E5,3.125004E4,5.3478057E3,1.9286203E2,1.0360095E2,1.7026677E2,2.640564E5,7.052658E4,9.728922E4,2.7655162E4,2.155295E4,1.8819693E4,1.2323886E4,1.7411379E4,1.03134625E5,4.2837457E4,1.8479066E4,1.5925105E5,2.2583672E5,2.9284634E5,1.7848432E4,1.3401607E4,4.4194023E3,9.2840326E2,1.04606E2,8.8256035E1,9.038778E1,1.3213172E1,1.2882686E2,4.143992E1,1.27962164E5,1.3609422E5,6.3215758E4,7.3108223E3,6.908487E4,2.8204346E4,7.0829756E3,2.0572186E4,1.22903955E4,9.262554E3,4.5436714E3,1.4276021E4,3.1521963E3,9.171689E3,1.6979006E4,4.3237256E2,3.1287184E4,7.184744E4,1.7526752E4,2.5310707E4,7.817562E3,1.0661504E4,4.4646332E4,1.1460472E5,7.917208E4,1.4666464E5,2.747062E5,1.8140146E4,7.971175E3,9.877258E3,2.867463E3,1.0534145E4,4.2690444E3,1.503581E2,8.2630493E2,1.0209832E2,6.4398384E1,4.020762E1,4.876152E1,3.9494514E1,2.6770435E1,6.3617344E1,3.054016E0,1.0159156E1,1.0891191E2,1.991495E1,2.72316E1,1.420832E1],"tree_param":{"num_deleted":"0","num_feature":"29","num_nodes":"97","size_leaf_vector":"0"}},{"base_weights":[-2.9887494E-3,3.246429E-1,-1.3415537E0,-2.1251768E-1,7.0930636E-1,-1.1456115E0,-4.034542E-1,-3.3251032E-1,6.4949614E-1,5.09601E-1,9.168023E-1,-1.1995202E0,-4.518646E-1,-5.039036E-1,-3.550656E-2,4.180748E-1,9.6849024E-1,-5.1608486E-3,7.271955E-1,9.99167E-1,-7.5684674E-2,-1.2383976E0,-6.8031687E-1,-6.4386356E-1,7.198642E-2,-6.6316724E-1,-3.397809E-1,-2.5308648E-1,2.2817808E-1,2.5297433E-1,8.117507E-1,9.816315E-1,1.0610691E-1,-1.646845E-1,5.044131E-1,5.484067E-1,1.060712E0,1.0543911E0,3.6178195E-1,4.6172222E-1,-3.5441864E-1,-1.2693602E0,-1.0369467E0,-9.818226E-1,-1.7282687E-1,-8.380152E-1,-3.8804048E-1,2.4161284E-1,-7.697876E-1,-2.0727873E-1,-4.000146E-2,-1.5721317E-1,-5.9434924E-2,-1.05501E-1,1.2833212E-1,2.1434017E-2,1.9148247E-1,4.152066E-2,2.0085387E-1,1.5464666E-1,2.7434617E-1,2.5418913E-1,3.2621393E-1,1.0876355E-1,-6.1117515E-2,-1.6529289E-1,1.9779904E-2,-1.7369382E-2,2.1010697E-1,5.5966333E-2,2.4852486E-1,1.5811288E-1,3.4094644E-1,2.6959425E-1,3.48924E-1,2.6151216E-1,-9.1106534E-2,2.0194943E-1,7.463113E-2,1.9221196E-2,-1.808199E-1,-3.8361183E-1,-3.2074997E-1,-3.5415134E-1,-2.3380902E-1,-3.2177547E-1,-9.8185815E-2,-1.8509983E-1,1.9732967E-2,-2.7571046E-1,-6.524696E-2,-6.1936446E-2,-3.0229115E-1,-1.05009094E-1,1.2633805E-1,-2.698571E-1,-3.5998497E-2],"categories":[],"categories_nodes":[],"categories_segments":[],"categories_sizes":[],"default_left":[0,0,0,0,0,0,0,0,0,0,0,0,0,0,0,0,0,0,0,0,0,0,0,0,0,0,0,0,0,0,0,0,0,0,0,0,0,0,0,0,0,0,0,0,0,0,0,0,0,0,0,0,0,0,0,0,0,0,0,0,0,0,0,0,0,0,0,0,0,0,0,0,0,0,0,0,0,0,0,0,0,0,0,0,0,0,0,0,0,0,0,0,0,0,0,0,0],"id":2,"left_children":[1,3,5,7,9,11,-1,13,15,17,19,21,23,25,27,29,31,33,35,37,39,41,43,45,47,49,51,53,55,57,59,61,63,65,67,69,71,73,75,77,79,81,83,85,87,89,91,93,95,-1,-1,-1,-1,-1,-1,-1,-1,-1,-1,-1,-1,-1,-1,-1,-1,-1,-1,-1,-1,-1,-1,-1,-1,-1,-1,-1,-1,-1,-1,-1,-1,-1,-1,-1,-1,-1,-1,-1,-1,-1,-1,-1,-1,-1,-1,-1,-1],"loss_changes":[7.199779E5,2.7251622E5,2.068125E2,5.6926047E4,3.1846094E4,1.9928613E2,0E0,2.4592164E4,4.9640254E3,4.3865227E4,3.0811281E4,9.922168E1,3.8956795E1,8.0068516E3,1.0142138E4,2.5330674E3,3.2031445E2,9.458704E3,1.6413188E4,1.22499375E4,4.32672E3,2.7442383E1,5.301027E1,1.374115E1,1.5130227E1,2.2866406E3,3.9380137E3,6.5012764E3,5.136882E3,1.3104547E3,3.500288E2,3.9469727E2,3.3881012E1,7.894536E3,3.056666E3,1.8156992E4,3.8841328E3,5.4205625E3,9.417387E3,4.4402026E2,1.9764912E3,6.102539E0,2.1995667E1,1.2588516E1,1.3897058E1,7.8514557E0,1.3749617E1,9.479809E0,1.3919592E0,0E0,0E0,0E0,0E0,0E0,0E0,0E0,0E0,0E0,0E0,0E0,0E0,0E0,0E0,0E0,0E0,0E0,0E0,0E0,0E0,0E0,0E0,0E0,0E0,0E0,0E0,0E0,0E0,0E0,0E0,0E0,0E0,0E0,0E0,0E0,0E0,0E0,0E0,0E0,0E0,0E0,0E0,0E0,0E0,0E0,0E0,0E0,0E0],"parents":[2147483647,0,0,1,1,2,2,3,3,4,4,5,5,7,7,8,8,9,9,10,10,11,11,12,12,13,13,14,14,15,15,16,16,17,17,18,18,19,19,20,20,21,21,22,22,23,23,24,24,25,25,26,26,27,27,28,28,29,29,30,30,31,31,32,32,33,33,34,34,35,35,36,36,37,37,38,38,39,39,40,40,41,41,42,42,43,43,44,44,45,45,46,46,47,47,48,48],"right_children":[2,4,6,8,10,12,-1,14,16,18,20,22,24,26,28,30,32,34,36,38,40,42,44,46,48,50,52,54,56,58,60,62,64,66,68,70,72,74,76,78,80,82,84,86,88,90,92,94,96,-1,-1,-1,-1,-1,-1,-1,-1,-1,-1,-1,-1,-1,-1,-1,-1,-1,-1,-1,-1,-1,-1,-1,-1,-1,-1,-1,-1,-1,-1,-1,-1,-1,-1,-1,-1,-1,-1,-1,-1,-1,-1,-1,-1,-1,-1,-1,-1],"split_conditions":[6.7183846E-1,-4.486586E-1,7.019393E-1,2.0659481E-1,7.846395E-2,3.4961307E-1,-4.034542E-1,-4.0463832E-1,4.8119012E-1,-1.4441189E-1,1.6087961E0,3.7818605E-1,2.695516E-4,-3.90292E-1,-3.853295E-1,-3.8845846E-1,1.9480773E0,1.9769658E-1,4.6245876E-1,1.5127684E0,7.3341584E-1,-2.629226E-1,-6.3269985E-1,6.5312266E-1,1.6087961E0,8.828704E-1,-6.550055E-1,-1.3629396E-1,-7.7577956E-2,3.5612258E-1,-1.4495009E0,6.755574E-1,2.7060752E0,-2.6954302E-1,-8.1325763E-1,-5.250052E-1,1.8971793E-1,4.3349448E-1,5.317724E-1,6.0585284E-1,9.788618E-1,2.1591912E-1,-1.07598E-1,2.6077E0,4.438604E-1,4.702104E-1,1.6087961E0,-2.2320603E-1,9.6272445E-1,-2.0727873E-1,-4.000146E-2,-1.5721317E-1,-5.9434924E-2,-1.05501E-1,1.2833212E-1,2.1434017E-2,1.9148247E-1,4.152066E-2,2.0085387E-1,1.5464666E-1,2.7434617E-1,2.5418913E-1,3.2621393E-1,1.0876355E-1,-6.1117515E-2,-1.6529289E-1,1.9779904E-2,-1.7369382E-2,2.1010697E-1,5.5966333E-2,2.4852486E-1,1.5811288E-1,3.4094644E-1,2.6959425E-1,3.48924E-1,2.6151216E-1,-9.1106534E-2,2.0194943E-1,7.463113E-2,1.9221196E-2,-1.808199E-1,-3.8361183E-1,-3.2074997E-1,-3.5415134E-1,-2.3380902E-1,-3.2177547E-1,-9.8185815E-2,-1.8509983E-1,1.9732967E-2,-2.7571046E-1,-6.524696E-2,-6.1936446E-2,-3.0229115E-1,-1.05009094E-1,1.2633805E-1,-2.698571E-1,-3.5998497E-2],"split_indices":[0,25,0,18,18,18,0,15,18,15,18,15,21,18,18,15,18,21,21,17,13,7,18,18,18,20,19,21,15,26,27,18,18,23,23,18,27,18,15,23,17,1,18,15,27,4,18,7,8,0,0,0,0,0,0,0,0,0,0,0,0,0,0,0,0,0,0,0,0,0,0,0,0,0,0,0,0,0,0,0,0,0,0,0,0,0,0,0,0,0,0,0,0,0,0,0,0],"split_type":[0,0,0,0,0,0,0,0,0,0,0,0,0,0,0,0,0,0,0,0,0,0,0,0,0,0,0,0,0,0,0,0,0,0,0,0,0,0,0,0,0,0,0,0,0,0,0,0,0,0,0,0,0,0,0,0,0,0,0,0,0,0,0,0,0,0,0,0,0,0,0,0,0,0,0,0,0,0,0,0,0,0,0,0,0,0,0,0,0,0,0,0,0,0,0,0,0],"sum_hessian":[1.6416982E6,1.3188844E6,3.228138E5,5.50351E5,7.685334E5,5.3421475E3,3.1747166E5,4.8310344E5,6.724758E4,3.9162028E5,3.7691312E5,4.956282E3,3.8586508E2,3.063284E5,1.7677502E5,3.8974773E4,2.8272799E4,1.1635679E5,2.752635E5,3.4803066E5,2.888246E4,4.609726E3,3.465561E2,2.822041E2,1.0366097E2,1.5546408E5,1.5086433E5,9.685498E4,7.992004E4,2.7460139E4,1.1514636E4,2.78483E4,4.2449997E2,8.861597E4,2.7740816E4,1.7920134E5,9.606213E4,3.202804E5,2.7750273E4,9.863909E3,1.901855E4,3.9910156E3,6.187108E2,2.1681131E2,1.297448E2,1.59147E2,1.2305709E2,8.686893E1,1.6792042E1,1.4772342E5,7.740667E3,6.5572055E4,8.529227E4,8.460525E4,1.2249728E4,5.7822523E4,2.209752E4,2.1537434E4,5.922705E3,2.9664077E3,8.548228E3,1.2270192E4,1.5578107E4,2.3216997E2,1.9232999E2,3.3126547E4,5.548942E4,7.1687915E3,2.0572025E4,7.8176555E4,1.010248E5,1.1944978E4,8.411716E4,1.3164758E5,1.8863283E5,1.5711117E4,1.2039156E4,4.94841E3,4.9154995E3,7.082689E3,1.1935861E4,3.8078594E3,1.8315616E2,3.9498984E2,2.2372098E2,1.898472E2,2.6964115E1,4.4786514E1,8.4958275E1,1.4034203E2,1.880498E1,9.61976E1,2.6859495E1,2.0000685E1,6.686824E1,1.3677E1,3.1150405E0],"tree_param":{"num_deleted":"0","num_feature":"29","num_nodes":"97","size_leaf_vector":"0"}},{"base_weights":[-4.6069985E-3,2.4774303E-1,-3.6915344E-1,-1.4519984E-1,5.727796E-1,-2.8602052E-1,3.2098404E-1,3.0889297E-1,7.0883304E-1,-3.66972E-1,1.5908915E-1,1.3574217E-1,7.1275246E-1,-1.7434336E-2,6.882355E-1,7.7735555E-1,4.2777933E-2,-5.084531E-1,-2.241954E-1,6.7352064E-2,6.4610165E-1,-1.1656215E-1,3.7062496E-1,5.3749985E-1,8.5191333E-1,-5.5408895E-1,1.7010021E-1,-1.3910595E-1,7.9158324E-1,6.5194434E-1,9.59126E-1,6.81159E-1,-2.7054423E-1,-1.6228218E-1,-1.649876E-2,-1.0905195E-1,-1.3130092E-2,-4.3622743E-2,7.749909E-2,2.641982E-1,1.22177474E-1,-6.097318E-2,6.847949E-2,1.33347465E-2,1.5635657E-1,9.5407456E-2,2.0519458E-1,2.742911E-1,1.8957144E-1,-2.413832E-1,-5.0104853E-2,-1.2622929E-2,1.8015681E-1,2.315642E-1,-1.895322E-1,1.12637855E-1,2.8165793E-1,1.2674455E-1,2.5170106E-1,2.987217E-1,3.8243815E-2,2.5012234E-1,6.9406986E-2,1.4372525E-1,-1.585832E-1],"categories":[],"categories_nodes":[],"categories_segments":[],"categories_sizes":[],"default_left":[0,0,0,0,0,0,0,0,0,0,0,0,0,0,0,0,0,0,0,0,0,0,0,0,0,0,0,0,0,0,0,0,0,0,0,0,0,0,0,0,0,0,0,0,0,0,0,0,0,0,0,0,0,0,0,0,0,0,0,0,0,0,0,0,0],"id":3,"left_children":[1,3,-1,5,7,9,11,13,15,17,19,21,23,25,27,29,31,33,35,37,39,41,43,45,47,49,51,53,55,57,59,61,63,-1,-1,-1,-1,-1,-1,-1,-1,-1,-1,-1,-1,-1,-1,-1,-1,-1,-1,-1,-1,-1,-1,-1,-1,-1,-1,-1,-1,-1,-1,-1,-1],"loss_changes":[4.609572E5,1.5782286E5,0E0,3.6724316E4,2.428E4,1.5480609E4,9.418227E3,2.8479264E4,2.0365266E4,7.3430234E3,2.9537007E3,5.221994E3,1.0156504E3,1.2446765E4,9.096758E3,9.222516E3,8.325966E3,2.6897812E3,4.547843E3,2.2606301E3,5.867285E2,1.2698872E3,2.2410708E3,5.927178E2,3.1816992E2,3.1054795E3,8.369844E3,5.3030947E3,5.795699E3,1.0276117E4,5.0294375E3,9.4034814E2,5.401836E3,0E0,0E0,0E0,0E0,0E0,0E0,0E0,0E0,0E0,0E0,0E0,0E0,0E0,0E0,0E0,0E0,0E0,0E0,0E0,0E0,0E0,0E0,0E0,0E0,0E0,0E0,0E0,0E0,0E0,0E0,0E0,0E0],"parents":[2147483647,0,0,1,1,3,3,4,4,5,5,6,6,7,7,8,8,9,9,10,10,11,11,12,12,13,13,14,14,15,15,16,16,17,17,18,18,19,19,20,20,21,21,22,22,23,23,24,24,25,25,26,26,27,27,28,28,29,29,30,30,31,31,32,32],"right_children":[2,4,-1,6,8,10,12,14,16,18,20,22,24,26,28,30,32,34,36,38,40,42,44,46,48,50,52,54,56,58,60,62,64,-1,-1,-1,-1,-1,-1,-1,-1,-1,-1,-1,-1,-1,-1,-1,-1,-1,-1,-1,-1,-1,-1,-1,-1,-1,-1,-1,-1,-1,-1,-1,-1],"split_conditions":[6.945643E-1,-4.2426428E-1,-3.6915344E-1,4.0252875E-3,-2.4672207E-1,-1.3577037E-1,3.68981E-1,5.9814656E-1,1.625549E0,5.319631E-1,3.1766465E-1,-5.4995084E-1,5.488053E-1,-1.0737561E0,9.144954E-2,1.1889141E-1,1.5121707E-1,4.259942E-2,-5.328634E-1,-4.9557427E-1,3.1221813E-1,2.850131E-1,-1.4266281E0,-5.963454E-1,1.4615595E0,-5.52127E-1,-9.00354E-2,8.78109E-2,-1.0355984E0,2.7217653E-1,1.6613512E0,7.852266E-1,-1.2994205E0,-1.6228218E-1,-1.649876E-2,-1.0905195E-1,-1.3130092E-2,-4.3622743E-2,7.749909E-2,2.641982E-1,1.22177474E-1,-6.097318E-2,6.847949E-2,1.33347465E-2,1.5635657E-1,9.5407456E-2,2.0519458E-1,2.742911E-1,1.8957144E-1,-2.413832E-1,-5.0104853E-2,-1.2622929E-2,1.8015681E-1,2.315642E-1,-1.895322E-1,1.12637855E-1,2.8165793E-1,1.2674455E-1,2.5170106E-1,2.987217E-1,3.8243815E-2,2.5012234E-1,6.9406986E-2,1.4372525E-1,-1.585832E-1],"split_indices":[0,25,0,18,18,15,18,15,17,27,15,15,18,23,27,21,14,1,19,18,22,26,27,15,23,18,25,17,18,18,18,15,23,0,0,0,0,0,0,0,0,0,0,0,0,0,0,0,0,0,0,0,0,0,0,0,0,0,0,0,0,0,0,0,0],"split_type":[0,0,0,0,0,0,0,0,0,0,0,0,0,0,0,0,0,0,0,0,0,0,0,0,0,0,0,0,0,0,0,0,0,0,0,0,0,0,0,0,0,0,0,0,0,0,0,0,0,0,0,0,0,0,0,0,0,0,0,0,0,0,0,0,0],"sum_hessian":[1.4900474E6,1.2356849E6,2.5436252E5,5.594073E5,6.7627756E5,4.2962916E5,1.2977817E5,2.3006033E5,4.4621722E5,3.63517E5,6.611215E4,8.8115445E4,4.1662727E4,1.2367262E5,1.0638772E5,4.0459325E5,4.1623965E4,1.825856E5,1.809314E5,5.563373E4,1.047842E4,4.2482484E4,4.563296E4,1.8442266E4,2.322046E4,3.2025504E4,9.164711E4,1.1813709E4,9.457401E4,2.3941514E5,1.6517812E5,1.3703161E4,2.7920805E4,1.7037875E5,1.2206831E4,1.02098695E5,7.883271E4,2.6316174E4,2.9317557E4,5.28527E3,5.19315E3,3.3948906E4,8.53358E3,1.44121875E4,3.1220773E4,7.3831777E3,1.1059088E4,1.808791E4,5.132551E3,1.9441484E4,1.2584019E4,6.1387207E4,3.0259904E4,4.146289E3,7.66742E3,2.47232E4,6.985081E4,1.0752235E5,1.3189278E5,1.5821266E5,6.9654663E3,1.0231557E4,3.4716047E3,7.150183E3,2.0770623E4],"tree_param":{"num_deleted":"0","num_feature":"29","num_nodes":"65","size_leaf_vector":"0"}},{"base_weights":[-5.8638784E-3,1.9513799E-1,-1.1615536E0,-7.7863194E-2,4.8144767E-1,-1.2671205E0,-3.4777477E-1,-1.5135849E-1,5.0263697E-1,3.9424777E-1,8.167753E-1,-1.2443812E0,-1.6497968E0,-3.21236E-1,9.80985E-3,3.1704244E-1,7.352322E-1,1.0339322E-1,5.3102946E-1,8.911748E-1,2.878227E-1,-3.6344254E-1,-1.327105E0,-4.503992E-1,-1.8014479E0,-4.706734E-1,-2.2854467E-1,-1.4283296E-1,1.9639386E-1,1.942672E-1,6.450693E-1,7.5003135E-1,-2.6171178E-1,-2.766925E-1,2.6907495E-1,6.106185E-1,1.4313007E-2,8.02396E-1,1.0388373E0,7.716662E-1,-1.3205583E-2,-1.2962842E0,-1.4331081E0,-5.769574E-1,-3.9600712E-1,-2.4913481E-1,-1.3285097E-1,-1.0199615E-1,-3.3994664E-2,-6.716124E-2,7.633663E-2,-2.0480515E-2,9.770311E-2,-1.5813444E-2,9.231435E-2,8.911438E-2,2.1185641E-1,1.7534734E-1,2.495379E-1,-1.617873E-1,-3.770962E-2,-1.2229464E-1,4.212344E-2,2.3533637E-2,1.8301734E-1,1.2571107E-1,2.2777681E-1,1.4380907E-1,-1.2670028E-1,1.7357746E-1,2.6621756E-1,2.7955616E-1,3.3711073E-1,2.7535582E-1,-8.8311E-3,-6.00516E-2,1.4188297E-1,-3.7583786E-1,-4.12648E-1,-4.1003886E-1,-4.878613E-1],"categories":[],"categories_nodes":[],"categories_segments":[],"categories_sizes":[],"default_left":[0,0,0,0,0,0,0,0,0,0,0,0,0,0,0,0,0,0,0,0,0,0,0,0,0,0,0,0,0,0,0,0,0,0,0,0,0,0,0,0,0,0,0,0,0,0,0,0,0,0,0,0,0,0,0,0,0,0,0,0,0,0,0,0,0,0,0,0,0,0,0,0,0,0,0,0,0,0,0,0,0],"id":4,"left_children":[1,3,5,7,9,11,-1,13,15,17,19,21,23,25,27,29,31,33,35,37,39,-1,41,-1,43,45,47,49,51,53,55,57,59,61,63,65,67,69,71,73,75,77,79,-1,-1,-1,-1,-1,-1,-1,-1,-1,-1,-1,-1,-1,-1,-1,-1,-1,-1,-1,-1,-1,-1,-1,-1,-1,-1,-1,-1,-1,-1,-1,-1,-1,-1,-1,-1,-1,-1],"loss_changes":[3.1523575E5,9.035558E4,4.746875E1,2.5246479E4,1.6498422E4,3.5229004E1,0E0,1.4380751E4,2.8704805E3,1.7814938E4,4.5823203E3,9.412598E0,2.6369019E0,3.5419512E3,7.6765757E3,1.489552E3,4.356211E2,9.01984E3,1.2525297E4,1.3374453E3,2.0916123E3,0E0,1.8718262E0,0E0,4.0467224E0,9.8001953E2,2.0266602E3,4.7730947E3,4.149914E3,7.541912E2,2.140586E2,3.9312012E2,1.6258406E1,2.3751562E3,6.4838735E3,7.5150234E3,8.255047E3,1.2123438E3,3.469414E2,6.450454E2,8.048319E2,1.3597412E0,9.4866943E-1,0E0,0E0,0E0,0E0,0E0,0E0,0E0,0E0,0E0,0E0,0E0,0E0,0E0,0E0,0E0,0E0,0E0,0E0,0E0,0E0,0E0,0E0,0E0,0E0,0E0,0E0,0E0,0E0,0E0,0E0,0E0,0E0,0E0,0E0,0E0,0E0,0E0,0E0],"parents":[2147483647,0,0,1,1,2,2,3,3,4,4,5,5,7,7,8,8,9,9,10,10,11,11,12,12,13,13,14,14,15,15,16,16,17,17,18,18,19,19,20,20,22,22,24,24,25,25,26,26,27,27,28,28,29,29,30,30,31,31,32,32,33,33,34,34,35,35,36,36,37,37,38,38,39,39,40,40,41,41,42,42],"right_children":[2,4,6,8,10,12,-1,14,16,18,20,22,24,26,28,30,32,34,36,38,40,-1,42,-1,44,46,48,50,52,54,56,58,60,62,64,66,68,70,72,74,76,78,80,-1,-1,-1,-1,-1,-1,-1,-1,-1,-1,-1,-1,-1,-1,-1,-1,-1,-1,-1,-1,-1,-1,-1,-1,-1,-1,-1,-1,-1,-1,-1,-1,-1,-1,-1,-1,-1,-1],"split_conditions":[6.726878E-1,-3.6610508E-1,7.07512E-1,2.770701E-1,6.99674E-1,3.6308804E-1,-3.4777477E-1,-4.9301478E-1,5.284724E-1,-2.8531995E-1,1.32799E0,-4.42161E-1,-3.105067E-1,-4.7176105E-1,-3.3946016E-1,-3.5337138E-1,2.1394463E0,5.2603316E-1,1.2782308E0,1.7274667E0,1.5243869E0,-3.6344254E-1,3.5572416E-1,-4.503992E-1,1.7165254E0,-5.9024066E-2,1.7108081E-1,8.493894E-1,-1.3376782E0,-1.468138E0,-1.479998E0,-5.6061447E-1,-5.928451E-1,-5.9024066E-2,8.1942487E-1,2.1548593E-1,3.3620024E-1,-5.018464E-1,9.676665E-1,1.5021353E0,1.9919715E0,-1.0711553E-1,-5.0691247E-1,-5.769574E-1,-3.9600712E-1,-2.4913481E-1,-1.3285097E-1,-1.0199615E-1,-3.3994664E-2,-6.716124E-2,7.633663E-2,-2.0480515E-2,9.770311E-2,-1.5813444E-2,9.231435E-2,8.911438E-2,2.1185641E-1,1.7534734E-1,2.495379E-1,-1.617873E-1,-3.770962E-2,-1.2229464E-1,4.212344E-2,2.3533637E-2,1.8301734E-1,1.2571107E-1,2.2777681E-1,1.4380907E-1,-1.2670028E-1,1.7357746E-1,2.6621756E-1,2.7955616E-1,3.3711073E-1,2.7535582E-1,-8.8311E-3,-6.00516E-2,1.4188297E-1,-3.7583786E-1,-4.12648E-1,-4.1003886E-1,-4.878613E-1],"split_indices":[0,25,0,18,21,18,0,15,18,18,17,25,25,18,18,15,18,27,17,21,13,0,15,0,18,23,27,20,27,27,27,25,19,23,15,18,14,18,28,18,19,18,18,0,0,0,0,0,0,0,0,0,0,0,0,0,0,0,0,0,0,0,0,0,0,0,0,0,0,0,0,0,0,0,0,0,0,0,0,0,0],"split_type":[0,0,0,0,0,0,0,0,0,0,0,0,0,0,0,0,0,0,0,0,0,0,0,0,0,0,0,0,0,0,0,0,0,0,0,0,0,0,0,0,0,0,0,0,0,0,0,0,0,0,0,0,0,0,0,0,0,0,0,0,0,0,0,0,0,0,0,0,0,0,0,0,0,0,0,0,0,0,0,0,0],"sum_hessian":[1.3570425E6,1.1559894E6,2.0105316E5,5.917481E5,5.6424125E5,4.283468E3,1.9676969E5,5.2524875E5,6.649935E4,4.4779666E5,1.164446E5,4.047227E3,2.36241E2,2.5571477E5,2.69534E5,3.698795E4,2.9511402E4,1.4323069E5,3.04566E5,1.0208519E5,1.435941E4,2.906656E3,1.1405709E3,1.2488179E2,1.1135921E2,9.789075E4,1.5782402E5,1.4825119E5,1.2128281E5,2.6915498E4,1.0072451E4,2.907997E4,4.3143158E2,4.348115E4,9.974953E4,2.6391534E5,4.0650633E4,6.375834E4,3.832685E4,5.506782E3,8.852628E3,8.9389557E2,2.466754E2,8.649212E1,2.486709E1,7.0280576E3,9.0862695E4,8.0229266E4,7.759474E4,1.2313489E5,2.5116297E4,3.980217E4,8.148064E4,8.472062E3,1.8443436E4,1.5055314E3,8.56692E3,9.616956E3,1.9463016E4,1.4090457E2,2.90527E2,3.309156E4,1.0389589E4,6.3981395E4,3.576814E4,1.1530303E5,1.4861233E5,1.9685027E4,2.0965607E4,1.7551332E4,4.6207004E4,1.6959363E4,2.1367488E4,4.6568486E3,8.499338E2,6.394122E3,2.4585066E3,5.8790857E2,3.0598697E2,1.8963153E2,5.7043877E1],"tree_param":{"num_deleted":"0","num_feature":"29","num_nodes":"81","size_leaf_vector":"0"}},{"base_weights":[-6.9724657E-3,1.4755604E-1,-1.1133244E0,-5.8336906E-2,3.984362E-1,-1.1455733E0,-3.337403E-1,-1.2195497E-1,5.153633E-1,2.5281695E-1,5.758616E-1,-1.1374484E0,-3.810279E-1,-1.849946E-1,2.2988036E-1,3.4508213E-1,6.7875826E-1,1.4081979E-1,6.1664176E-1,6.4221555E-1,-1.4272599E-1,-3.3930942E-1,-3.584867E-1,-2.961324E-1,-6.499403E-2,1.3514976E-1,5.5125403E-1,2.0194708E-1,5.521493E-1,7.3179275E-1,-1.7447692E-1,-1.219662E-1,2.745765E-1,6.4495975E-1,-5.241801E-1,5.139369E-1,7.6486593E-1,1.3256912E-1,-2.9316506E-1,-1.9663396E-1,-7.382592E-2,-3.6671005E-2,6.936699E-2,2.0875495E-2,1.982125E-1,1.7003646E-2,1.7968698E-1,2.780036E-2,1.12485014E-1,8.5248426E-2,1.9660544E-1,2.48727E-1,1.5076476E-1,2.7653808E-2,-1.7439486E-1,3.1984378E-2,-1.2808152E-1,-3.2429215E-2,1.1264443E-1,1.6902971E-1,2.871792E-1,6.968082E-2,-2.6729548E-1,1.8957103E-2,1.9458492E-1,2.4471408E-1,1.142957E-1,1.5439737E-1,-4.6928294E-2,-1.2684326E-1,4.7018994E-2],"categories":[],"categories_nodes":[],"categories_segments":[],"categories_sizes":[],"default_left":[0,0,0,0,0,0,0,0,0,0,0,0,0,0,0,0,0,0,0,0,0,0,0,0,0,0,0,0,0,0,0,0,0,0,0,0,0,0,0,0,0,0,0,0,0,0,0,0,0,0,0,0,0,0,0,0,0,0,0,0,0,0,0,0,0,0,0,0,0,0,0],"id":5,"left_children":[1,3,5,7,9,11,-1,13,15,17,19,21,-1,23,25,27,29,31,33,35,37,-1,-1,39,41,43,45,47,49,51,53,55,57,59,61,63,65,67,69,-1,-1,-1,-1,-1,-1,-1,-1,-1,-1,-1,-1,-1,-1,-1,-1,-1,-1,-1,-1,-1,-1,-1,-1,-1,-1,-1,-1,-1,-1,-1,-1],"loss_changes":[2.1347931E5,5.6595414E4,2.953125E0,2.1963742E4,1.27598125E4,2.5292969E0,0E0,1.2014994E4,1.671126E3,1.1052645E4,1.0614984E4,1.2207031E-2,0E0,6.126825E3,2.505852E3,8.717871E2,1.3872637E3,7.2902207E3,2.0629219E3,3.2061406E3,7.7946814E2,0E0,0E0,4.288742E3,3.7455667E3,2.1906226E3,4.4206787E2,3.2884088E2,3.3233472E2,6.4331445E2,1.9475226E2,4.877023E3,5.3073613E3,1.5856914E3,4.2944357E2,6.0474766E3,2.0333203E3,7.34496E2,7.0990234E2,0E0,0E0,0E0,0E0,0E0,0E0,0E0,0E0,0E0,0E0,0E0,0E0,0E0,0E0,0E0,0E0,0E0,0E0,0E0,0E0,0E0,0E0,0E0,0E0,0E0,0E0,0E0,0E0,0E0,0E0,0E0,0E0],"parents":[2147483647,0,0,1,1,2,2,3,3,4,4,5,5,7,7,8,8,9,9,10,10,11,11,13,13,14,14,15,15,16,16,17,17,18,18,19,19,20,20,23,23,24,24,25,25,26,26,27,27,28,28,29,29,30,30,31,31,32,32,33,33,34,34,35,35,36,36,37,37,38,38],"right_children":[2,4,6,8,10,12,-1,14,16,18,20,22,-1,24,26,28,30,32,34,36,38,-1,-1,40,42,44,46,48,50,52,54,56,58,60,62,64,66,68,70,-1,-1,-1,-1,-1,-1,-1,-1,-1,-1,-1,-1,-1,-1,-1,-1,-1,-1,-1,-1,-1,-1,-1,-1,-1,-1,-1,-1,-1,-1,-1,-1],"split_conditions":[6.841233E-1,-3.1134972E-1,7.3179156E-1,3.4316874E-1,3.1009668E-1,3.1690845E-1,-3.337403E-1,-9.397234E-2,5.923656E-1,9.890785E-1,1.5282234E0,1.3024777E-1,-3.810279E-1,6.8868434E-1,-5.7199087E-2,-4.497152E-1,3.3678636E-1,3.39662E-1,2.778437E0,1.4773321E-1,5.456404E-1,-3.3930942E-1,-3.584867E-1,6.6681474E-2,-2.0736098E-2,1.7108084E0,-8.208304E-1,2.0374529E-1,-1.3927424E0,1.1177622E0,7.3341584E-1,-2.0758387E-2,-8.0559707E-1,2.3820026E0,9.628068E-1,-2.3937672E-1,1.035566E0,5.346699E-1,3.1450858E0,-1.9663396E-1,-7.382592E-2,-3.6671005E-2,6.936699E-2,2.0875495E-2,1.982125E-1,1.7003646E-2,1.7968698E-1,2.780036E-2,1.12485014E-1,8.5248426E-2,1.9660544E-1,2.48727E-1,1.5076476E-1,2.7653808E-2,-1.7439486E-1,3.1984378E-2,-1.2808152E-1,-3.2429215E-2,1.1264443E-1,1.6902971E-1,2.871792E-1,6.968082E-2,-2.6729548E-1,1.8957103E-2,1.9458492E-1,2.4471408E-1,1.142957E-1,1.5439737E-1,-4.6928294E-2,-1.2684326E-1,4.7018994E-2],"split_indices":[0,7,0,18,4,18,0,15,18,20,18,15,0,27,21,15,15,27,17,18,10,0,0,23,1,17,23,26,27,23,13,17,18,21,15,15,17,23,25,0,0,0,0,0,0,0,0,0,0,0,0,0,0,0,0,0,0,0,0,0,0,0,0,0,0,0,0,0,0,0,0],"split_type":[0,0,0,0,0,0,0,0,0,0,0,0,0,0,0,0,0,0,0,0,0,0,0,0,0,0,0,0,0,0,0,0,0,0,0,0,0,0,0,0,0,0,0,0,0,0,0,0,0,0,0,0,0,0,0,0,0,0,0,0,0,0,0,0,0,0,0,0,0,0,0],"sum_hessian":[1.2486859E6,1.0956528E6,1.5303323E5,6.0178175E5,4.9387097E5,3.9261536E3,1.4910708E5,5.417117E5,6.0070047E4,2.712494E5,2.2262153E5,3.6951772E3,2.3097624E2,4.593998E5,8.231187E4,2.941671E4,3.0653336E4,2.0740483E5,6.3844586E4,2.0380262E5,1.881891E4,3.3428313E3,3.5234592E2,2.3850673E5,2.2089308E5,6.357379E4,1.8738082E4,1.7394646E4,1.2022064E4,2.885965E4,1.7936854E3,6.995917E4,1.3744566E5,6.2298613E4,1.5459696E3,9.961823E4,1.041844E5,6.6499644E3,1.2168945E4,2.9156977E4,2.0934977E5,1.8512006E5,3.5773023E4,5.6523473E4,7.050316E3,1.6485237E3,1.7089559E4,1.066164E4,6.7330073E3,3.343544E3,8.6785205E3,2.0258693E4,8.600956E3,1.083981E3,7.097045E2,3.9988156E4,2.9971016E4,2.8679785E4,1.08765875E5,4.9404348E4,1.2894267E4,5.0496454E2,1.0410051E3,2.2917893E4,7.6700336E4,9.1997555E4,1.2186849E4,2.8634094E3,3.786555E3,9.446747E3,2.7221985E3],"tree_param":{"num_deleted":"0","num_feature":"29","num_nodes":"71","size_leaf_vector":"0"}},{"base_weights":[-7.152366E-3,1.12669155E-1,-1.0819E0,1.1736958E-2,4.215408E-1,-1.1234087E0,-3.241649E-1,-7.3860124E-2,3.096769E-1,4.6922463E-1,-7.864024E-2,-1.1142495E0,-3.8502774E-1,-1.6540046E-1,1.312645E-1,4.029914E-2,4.244109E-1,3.6509964E-1,6.92907E-1,9.3658775E-2,-3.4795928E-1,-3.3188203E-1,-3.5484046E-1,-2.05815E-1,1.7640655E-1,1.5714753E-1,-3.9744577E-1,-2.0748498E-1,1.6818692E-1,2.7242297E-1,5.506783E-1,3.3052374E-2,5.4558957E-1,7.614953E-1,-8.728623E-3,3.91622E-1,-6.2969305E-2,-5.45014E-1,9.849896E-4,-9.039911E-2,-2.8545953E-2,-5.680481E-2,1.034135E-1,2.1911524E-2,1.296E-1,8.5331865E-2,-2.3550084E-1,-1.1509733E-1,1.2475461E-1,-5.7227694E-4,8.9849874E-2,3.0893175E-2,1.6801992E-1,8.539795E-2,1.9789362E-1,6.064147E-2,-6.456618E-2,4.8263323E-2,1.9444142E-1,2.0429409E-1,2.7075458E-1,2.0709471E-1,-2.4447761E-1,2.0218906E-1,-1.24474116E-1,2.083921E-2,-1.1003949E-1,-2.1474363E-2,-1.84472E-1,-8.928764E-2,8.067579E-2],"categories":[],"categories_nodes":[],"categories_segments":[],"categories_sizes":[],"default_left":[0,0,0,0,0,0,0,0,0,0,0,0,0,0,0,0,0,0,0,0,0,0,0,0,0,0,0,0,0,0,0,0,0,0,0,0,0,0,0,0,0,0,0,0,0,0,0,0,0,0,0,0,0,0,0,0,0,0,0,0,0,0,0,0,0,0,0,0,0,0,0],"id":6,"left_children":[1,3,5,7,9,11,-1,13,15,17,19,21,-1,23,25,27,29,31,33,35,37,-1,-1,39,41,43,45,47,49,51,53,55,57,59,61,63,65,67,69,-1,-1,-1,-1,-1,-1,-1,-1,-1,-1,-1,-1,-1,-1,-1,-1,-1,-1,-1,-1,-1,-1,-1,-1,-1,-1,-1,-1,-1,-1,-1,-1],"loss_changes":[1.4990153E5,3.2648828E4,5.34375E0,2.0130318E4,6.1519805E3,3.9248047E0,0E0,1.151372E4,5.444615E3,5.484465E3,1.0418171E3,5.854492E-1,0E0,5.8567646E3,2.5892588E3,1.6675164E3,2.3707832E3,9.630271E3,3.5996445E3,6.3903156E2,6.023069E2,0E0,0E0,4.0074746E3,2.7597075E3,4.1698096E3,2.3338618E3,1.9673619E3,7.752243E2,2.732482E3,1.9558848E3,2.375565E3,4.1068984E3,7.730469E2,3.7549622E3,1.0745977E3,3.611717E2,1.8519348E2,2.5309142E2,0E0,0E0,0E0,0E0,0E0,0E0,0E0,0E0,0E0,0E0,0E0,0E0,0E0,0E0,0E0,0E0,0E0,0E0,0E0,0E0,0E0,0E0,0E0,0E0,0E0,0E0,0E0,0E0,0E0,0E0,0E0,0E0],"parents":[2147483647,0,0,1,1,2,2,3,3,4,4,5,5,7,7,8,8,9,9,10,10,11,11,13,13,14,14,15,15,16,16,17,17,18,18,19,19,20,20,23,23,24,24,25,25,26,26,27,27,28,28,29,29,30,30,31,31,32,32,33,33,34,34,35,35,36,36,37,37,38,38],"right_children":[2,4,6,8,10,12,-1,14,16,18,20,22,-1,24,26,28,30,32,34,36,38,-1,-1,40,42,44,46,48,50,52,54,56,58,60,62,64,66,68,70,-1,-1,-1,-1,-1,-1,-1,-1,-1,-1,-1,-1,-1,-1,-1,-1,-1,-1,-1,-1,-1,-1,-1,-1,-1,-1,-1,-1,-1,-1,-1,-1],"split_conditions":[6.788613E-1,1.5584171E-1,7.3344886E-1,8.2211673E-1,1.4062613E0,3.687052E-1,-3.241649E-1,-7.103336E-2,3.1848344E-1,3.836276E-1,1.5243869E0,1.2785748E-1,-3.8502774E-1,4.217921E-1,6.7850345E-1,-7.5303153E-3,-4.375743E-1,-2.0021407E-1,6.8830043E-1,1.8339037E0,2.7836747E0,-3.3188203E-1,-3.5484046E-1,-3.6319104E-1,-9.7845984E-1,4.6788788E-1,1.7502831E-1,3.836276E-1,-1.4511951E0,4.7125098E-1,-4.183054E-1,-7.223697E-1,-5.796279E-1,7.4207264E-1,-1.2585282E0,3.5773188E-2,7.7699417E-1,-8.0871403E-1,1.5741273E0,-9.039911E-2,-2.8545953E-2,-5.680481E-2,1.034135E-1,2.1911524E-2,1.296E-1,8.5331865E-2,-2.3550084E-1,-1.1509733E-1,1.2475461E-1,-5.7227694E-4,8.9849874E-2,3.0893175E-2,1.6801992E-1,8.539795E-2,1.9789362E-1,6.064147E-2,-6.456618E-2,4.8263323E-2,1.9444142E-1,2.0429409E-1,2.7075458E-1,2.0709471E-1,-2.4447761E-1,2.0218906E-1,-1.24474116E-1,2.083921E-2,-1.1003949E-1,-2.1474363E-2,-1.84472E-1,-8.928764E-2,8.067579E-2],"split_indices":[0,4,0,20,18,18,0,18,27,18,13,15,0,15,10,23,18,15,15,18,25,0,0,0,18,18,17,18,27,15,15,26,18,20,23,15,23,23,17,0,0,0,0,0,0,0,0,0,0,0,0,0,0,0,0,0,0,0,0,0,0,0,0,0,0,0,0,0,0,0,0],"split_type":[0,0,0,0,0,0,0,0,0,0,0,0,0,0,0,0,0,0,0,0,0,0,0,0,0,0,0,0,0,0,0,0,0,0,0,0,0,0,0,0,0,0,0,0,0,0,0,0,0,0,0,0,0,0,0,0,0,0,0,0,0,0,0,0,0,0,0,0,0,0,0],"sum_hessian":[1.1640295E6,1.0472721E6,1.1675744E5,7.893361E5,2.57936E5,3.6527947E3,1.1310464E5,6.131741E5,1.76162E5,2.3548639E5,2.2449604E4,3.462564E3,1.9023082E2,4.2397034E5,1.8920378E5,5.261993E4,1.2354207E5,1.606881E5,7.47983E4,1.3691201E4,8.758403E3,3.1170376E3,3.455264E2,3.791418E5,4.4828527E4,1.8037425E5,8.829526E3,1.791288E4,3.4707047E4,5.6062656E4,6.7479414E4,5.6586723E4,1.04101375E5,6.8137445E4,6.660849E3,4.7167456E3,8.974456E3,5.597077E3,3.1613262E3,2.034965E5,1.7564533E5,1.4127316E4,3.0701209E4,1.3811131E5,4.2262934E4,3.1998435E3,5.6296826E3,1.3966044E4,3.946838E3,1.5121087E4,1.958596E4,3.5280742E4,2.0781912E4,1.9609898E4,4.7869516E4,3.366168E4,2.2925041E4,2.190964E4,8.2191734E4,4.337717E4,2.4760271E4,3.567582E3,3.0932673E3,3.493834E3,1.2229114E3,6.2506753E3,2.7237805E3,7.2025995E2,4.876817E3,1.495024E3,1.6663021E3],"tree_param":{"num_deleted":"0","num_feature":"29","num_nodes":"71","size_leaf_vector":"0"}},{"base_weights":[-6.8621393E-3,8.547078E-2,-1.0482591E0,1.9402301E-2,3.9330974E-1,-8.0751675E-1,-3.1747153E-1,-5.921236E-2,2.5727367E-1,5.4883588E-2,4.975975E-1,-9.3295544E-1,-5.7451785E-1,-1.5920727E-1,9.117141E-2,2.990637E-1,-4.0905923E-1,3.0266622E-1,-2.2082144E-1,3.0123693E-1,6.0790104E-1,-9.55488E-1,-6.415628E-1,-6.8912315E-1,-3.2071453E-1,-5.340417E-1,-1.1591269E-1,-1.0777626E-1,2.1389358E-1,1.7353281E-1,4.6457472E-1,2.3965563E-1,-6.226325E-1,1.1000843E-1,5.735317E-1,1.3157025E-1,-4.9011418E-1,6.8267256E-2,7.388221E-1,6.6706806E-1,-7.565839E-2,-9.8046505E-1,-8.489483E-1,-6.848002E-1,-2.6073974E-1,-8.459676E-1,-5.034657E-1,-4.388195E-1,-2.9187182E-2,-2.2410153E-1,-1.11490995E-1,-8.614122E-2,-1.651222E-2,-9.054152E-2,3.4657337E-2,-1.2805839E-2,1.0130902E-1,-6.770578E-4,1.4793974E-1,1.618649E-1,-9.413041E-2,2.419E-1,-1.12602E-2,-5.0453253E-2,-2.574042E-1,-1.9868324E-2,1.5908751E-1,1.9874345E-1,-2.8885085E-2,1.045562E-1,-2.426483E-2,-2.082599E-1,1.2244015E-2,-3.325228E-1,9.56492E-2,8.717714E-2,2.5077316E-1,2.036085E-1,-1.7743197E-1,7.607002E-2,-9.138986E-2,-2.9486245E-1,-1.4171243E-1,-2.574588E-1,-1.0735227E-2,-2.1586636E-1,-9.775046E-2,-1.0267334E-1,5.8855433E-2,-2.864833E-1,-2.297778E-1,-2.1201779E-1,-9.9372774E-2,-1.5660663E-1,-7.914868E-2,-9.3642905E-2,3.8756978E-2],"categories":[],"categories_nodes":[],"categories_segments":[],"categories_sizes":[],"default_left":[0,0,0,0,0,0,0,0,0,0,0,0,0,0,0,0,0,0,0,0,0,0,0,0,0,0,0,0,0,0,0,0,0,0,0,0,0,0,0,0,0,0,0,0,0,0,0,0,0,0,0,0,0,0,0,0,0,0,0,0,0,0,0,0,0,0,0,0,0,0,0,0,0,0,0,0,0,0,0,0,0,0,0,0,0,0,0,0,0,0,0,0,0,0,0,0,0],"id":7,"left_children":[1,3,5,7,9,11,-1,13,15,17,19,21,23,25,27,29,31,33,35,37,39,41,43,45,47,49,51,53,55,57,59,61,63,65,67,69,71,73,75,77,79,81,83,85,87,89,91,93,95,-1,-1,-1,-1,-1,-1,-1,-1,-1,-1,-1,-1,-1,-1,-1,-1,-1,-1,-1,-1,-1,-1,-1,-1,-1,-1,-1,-1,-1,-1,-1,-1,-1,-1,-1,-1,-1,-1,-1,-1,-1,-1,-1,-1,-1,-1,-1,-1],"loss_changes":[1.052605E5,2.0451115E4,2.1334375E2,1.5481231E4,6.270828E3,1.0329956E2,0E0,9.356795E3,5.7264043E3,2.8594128E3,2.941621E3,1.4539551E1,3.6019135E1,6.0648506E3,6.0672607E3,4.0203262E3,1.6816172E3,1.1503082E3,1.880154E3,4.980483E3,3.517375E3,4.862671E0,2.5990677E0,2.4542755E1,1.3396324E1,1.3380928E3,3.491919E3,4.107758E3,4.882181E3,6.182583E3,4.8706465E3,4.7231055E2,9.7656665E2,9.5427765E2,5.4592847E2,3.95619E2,1.2168853E3,9.40044E3,7.384199E2,1.1715859E3,5.2240515E2,1.6502686E0,3.081726E0,1.6478271E0,7.678304E-1,3.3099976E0,1.3597992E1,3.8966599E0,5.120302E0,0E0,0E0,0E0,0E0,0E0,0E0,0E0,0E0,0E0,0E0,0E0,0E0,0E0,0E0,0E0,0E0,0E0,0E0,0E0,0E0,0E0,0E0,0E0,0E0,0E0,0E0,0E0,0E0,0E0,0E0,0E0,0E0,0E0,0E0,0E0,0E0,0E0,0E0,0E0,0E0,0E0,0E0,0E0,0E0,0E0,0E0,0E0,0E0],"parents":[2147483647,0,0,1,1,2,2,3,3,4,4,5,5,7,7,8,8,9,9,10,10,11,11,12,12,13,13,14,14,15,15,16,16,17,17,18,18,19,19,20,20,21,21,22,22,23,23,24,24,25,25,26,26,27,27,28,28,29,29,30,30,31,31,32,32,33,33,34,34,35,35,36,36,37,37,38,38,39,39,40,40,41,41,42,42,43,43,44,44,45,45,46,46,47,47,48,48],"right_children":[2,4,6,8,10,12,-1,14,16,18,20,22,24,26,28,30,32,34,36,38,40,42,44,46,48,50,52,54,56,58,60,62,64,66,68,70,72,74,76,78,80,82,84,86,88,90,92,94,96,-1,-1,-1,-1,-1,-1,-1,-1,-1,-1,-1,-1,-1,-1,-1,-1,-1,-1,-1,-1,-1,-1,-1,-1,-1,-1,-1,-1,-1,-1,-1,-1,-1,-1,-1,-1,-1,-1,-1,-1,-1,-1,-1,-1,-1,-1,-1,-1],"split_conditions":[6.718177E-1,2.4003094E-1,7.2561806E-1,1.3063985E-1,-4.5787383E-2,-4.3441498E-1,-3.1747153E-1,-2.8083768E-1,8.5889405E-1,6.0128903E-1,-4.6810794E-1,1.8922563E-1,8.501187E-2,-1.5746832E-1,-5.650159E-1,5.055894E-1,-7.678219E-1,2.3602547E-1,1.5243869E0,1.9917922E0,1.306872E0,-2.8083768E-1,3.9073443E-1,-4.6765655E-3,4.0656075E-1,-5.265084E-1,-6.9409865E-1,7.5730276E-1,-1.7285863E-1,-3.1374902E-1,1.8958323E0,7.3341584E-1,7.3341584E-1,1.2644793E-1,2.315358E0,1.2644793E-1,2.7726445E0,-2.0188203E0,-1.3780156E0,2.9002306E0,1.5243869E0,4.5528528E-1,4.5528528E-1,7.942455E-1,1.2986376E0,-4.5280072E-1,-7.2195715E-1,6.3048077E-1,7.111815E-2,-2.2410153E-1,-1.11490995E-1,-8.614122E-2,-1.651222E-2,-9.054152E-2,3.4657337E-2,-1.2805839E-2,1.0130902E-1,-6.770578E-4,1.4793974E-1,1.618649E-1,-9.413041E-2,2.419E-1,-1.12602E-2,-5.0453253E-2,-2.574042E-1,-1.9868324E-2,1.5908751E-1,1.9874345E-1,-2.8885085E-2,1.045562E-1,-2.426483E-2,-2.082599E-1,1.2244015E-2,-3.325228E-1,9.56492E-2,8.717714E-2,2.5077316E-1,2.036085E-1,-1.7743197E-1,7.607002E-2,-9.138986E-2,-2.9486245E-1,-1.4171243E-1,-2.574588E-1,-1.0735227E-2,-2.1586636E-1,-9.775046E-2,-1.0267334E-1,5.8855433E-2,-2.864833E-1,-2.297778E-1,-2.1201779E-1,-9.9372774E-2,-1.5660663E-1,-7.914868E-2,-9.3642905E-2,3.8756978E-2],"split_indices":[0,21,0,18,27,25,0,15,15,17,18,18,18,23,18,18,23,18,13,15,18,15,1,15,10,15,19,27,27,15,18,13,13,15,13,15,25,23,18,17,13,1,1,18,9,23,18,18,27,0,0,0,0,0,0,0,0,0,0,0,0,0,0,0,0,0,0,0,0,0,0,0,0,0,0,0,0,0,0,0,0,0,0,0,0,0,0,0,0,0,0,0,0,0,0,0,0],"split_type":[0,0,0,0,0,0,0,0,0,0,0,0,0,0,0,0,0,0,0,0,0,0,0,0,0,0,0,0,0,0,0,0,0,0,0,0,0,0,0,0,0,0,0,0,0,0,0,0,0,0,0,0,0,0,0,0,0,0,0,0,0,0,0,0,0,0,0,0,0,0,0,0,0,0,0,0,0,0,0,0,0,0,0,0,0,0,0,0,0,0,0,0,0,0,0,0,0],"sum_hessian":[1.0946916E6,1.0055389E6,8.9152734E4,8.278636E5,1.7767527E5,3.55172E3,8.5601016E4,6.222241E5,2.0563953E5,4.185437E4,1.3582089E5,2.3068086E3,1.2449115E3,3.737235E5,2.485006E5,1.9350419E5,1.2135346E4,2.2043373E4,1.9810996E4,4.8854547E4,8.6966336E4,2.1391174E3,1.6769115E2,8.5646027E2,3.884512E2,3.86955E4,3.35028E5,9.480698E4,1.5369362E5,1.10044E5,8.3460195E4,3.0056765E3,9.12967E3,1.2882137E4,9.161235E3,8.581678E3,1.1229319E4,3.1881855E4,1.6972693E4,8.003845E4,6.927884E3,1.726222E3,4.1289526E2,1.4987646E2,1.7814692E1,4.623271E2,3.9413318E2,2.7609357E2,1.1235762E2,1.674025E4,2.1955248E4,8.786677E4,2.4716123E5,5.0728227E4,4.4078746E4,5.0022848E4,1.0367077E5,7.099535E4,3.904865E4,7.612742E4,7.332771E3,9.8666364E2,2.019013E3,3.1157512E3,6.013918E3,9.076821E3,3.8053154E3,8.0873125E3,1.0739233E3,4.245581E3,4.3360967E3,8.1111377E3,3.1181816E3,5.5965137E3,2.6285342E4,3.0225183E3,1.3950176E4,7.9306234E4,7.322242E2,2.8417861E3,4.0860977E3,1.7171439E3,9.078192E0,4.0819766E2,4.697621E0,1.3573077E2,1.4145685E1,1.5330983E1,2.4837084E0,1.9114821E2,2.711789E2,1.7935376E2,2.147794E2,1.8577852E2,9.031506E1,3.9972336E1,7.2385284E1],"tree_param":{"num_deleted":"0","num_feature":"29","num_nodes":"97","size_leaf_vector":"0"}},{"base_weights":[-5.9719975E-3,6.310269E-2,-3.127217E-1,4.124639E-3,3.056268E-1,-2.823813E-2,2.9557222E-1,2.2481924E-1,5.250717E-1,-1.24212705E-1,4.89537E-2,2.4194443E-1,7.2489244E-1,1.996095E-1,7.009044E-1,3.074182E-1,6.291226E-1,-2.9946974E-1,-7.358856E-2,-1.4486328E-1,1.0513668E-1,1.7389359E-1,4.6486974E-1,1.1725747E-1,8.4539855E-1,-7.38365E-1,2.2564349E-1,5.7784265E-1,9.207374E-1,3.827806E-1,-1.6277513E-1,6.656433E-1,8.860317E-2,-1.09762765E-1,3.8702175E-2,-3.6626253E-2,8.4372014E-2,-5.1683657E-2,1.670241E-1,-1.5748871E-2,5.4655444E-2,2.0109253E-2,1.24315836E-1,1.5624006E-1,-1.3751353E-1,-6.348241E-2,8.463151E-2,2.6665768E-1,7.6118246E-2,-3.7161484E-2,-3.742421E-1,8.074249E-2,-2.3675052E-2,-2.2106174E-1,2.3508616E-1,2.9269317E-1,1.4524986E-1,4.142322E-2,1.6905004E-1,1.2687947E-1,-1.08671434E-1,1.5401502E-1,2.3105265E-1,7.623342E-2,-9.850682E-2],"categories":[],"categories_nodes":[],"categories_segments":[],"categories_sizes":[],"default_left":[0,0,0,0,0,0,0,0,0,0,0,0,0,0,0,0,0,0,0,0,0,0,0,0,0,0,0,0,0,0,0,0,0,0,0,0,0,0,0,0,0,0,0,0,0,0,0,0,0,0,0,0,0,0,0,0,0,0,0,0,0,0,0,0,0],"id":8,"left_children":[1,3,-1,5,7,9,11,13,15,17,19,21,23,25,27,29,31,33,35,37,39,41,43,45,47,49,51,53,55,57,59,61,63,-1,-1,-1,-1,-1,-1,-1,-1,-1,-1,-1,-1,-1,-1,-1,-1,-1,-1,-1,-1,-1,-1,-1,-1,-1,-1,-1,-1,-1,-1,-1,-1],"loss_changes":[7.426381E4,1.3910465E4,0E0,7.378499E3,3.3733262E3,5.216266E3,1.7998887E3,1.6686191E3,1.1592979E3,2.7846426E3,4.249356E3,1.0543066E3,6.3557324E2,3.2247095E3,1.8861816E2,5.8691187E2,6.8369824E2,2.0015269E3,4.190752E3,1.6869799E3,3.6744116E3,1.3684885E3,8.395713E2,7.801156E1,1.8605713E2,1.1155585E3,1.7021543E3,1.2140027E3,5.9636475E1,6.311509E2,2.6750742E2,5.1600977E2,1.5144891E2,0E0,0E0,0E0,0E0,0E0,0E0,0E0,0E0,0E0,0E0,0E0,0E0,0E0,0E0,0E0,0E0,0E0,0E0,0E0,0E0,0E0,0E0,0E0,0E0,0E0,0E0,0E0,0E0,0E0,0E0,0E0,0E0],"parents":[2147483647,0,0,1,1,3,3,4,4,5,5,6,6,7,7,8,8,9,9,10,10,11,11,12,12,13,13,14,14,15,15,16,16,17,17,18,18,19,19,20,20,21,21,22,22,23,23,24,24,25,25,26,26,27,27,28,28,29,29,30,30,31,31,32,32],"right_children":[2,4,-1,6,8,10,12,14,16,18,20,22,24,26,28,30,32,34,36,38,40,42,44,46,48,50,52,54,56,58,60,62,64,-1,-1,-1,-1,-1,-1,-1,-1,-1,-1,-1,-1,-1,-1,-1,-1,-1,-1,-1,-1,-1,-1,-1,-1,-1,-1,-1,-1,-1,-1,-1,-1],"split_conditions":[7.0769846E-1,2.4480724E-1,-3.127217E-1,1.067127E0,8.405202E-1,4.218347E-1,2.572591E0,3.11705E0,1.0161523E-1,1.4695129E-1,-6.201556E-1,1.3684307E-1,9.347154E-1,-2.5307298E0,4.38178E0,2.315358E0,1.451028E0,4.616502E-1,2.0198996E-1,6.6894084E-1,-5.992025E-1,1.9312862E-1,1.0772918E0,8.7398726E-1,3.106329E0,6.434101E-2,1.3167284E0,-2.8987596E0,-2.5307298E0,2.7486444E-1,1.7425255E-1,-1.2272678E-1,2.315358E0,-1.09762765E-1,3.8702175E-2,-3.6626253E-2,8.4372014E-2,-5.1683657E-2,1.670241E-1,-1.5748871E-2,5.4655444E-2,2.0109253E-2,1.24315836E-1,1.5624006E-1,-1.3751353E-1,-6.348241E-2,8.463151E-2,2.6665768E-1,7.6118246E-2,-3.7161484E-2,-3.742421E-1,8.074249E-2,-2.3675052E-2,-2.2106174E-1,2.3508616E-1,2.9269317E-1,1.4524986E-1,4.142322E-2,1.6905004E-1,1.2687947E-1,-1.08671434E-1,1.5401502E-1,2.3105265E-1,7.623342E-2,-9.850682E-2],"split_indices":[0,4,0,20,20,27,21,19,27,23,15,18,28,23,19,13,18,18,1,18,18,15,15,28,13,27,18,23,23,18,17,18,13,0,0,0,0,0,0,0,0,0,0,0,0,0,0,0,0,0,0,0,0,0,0,0,0,0,0,0,0,0,0,0,0],"split_type":[0,0,0,0,0,0,0,0,0,0,0,0,0,0,0,0,0,0,0,0,0,0,0,0,0,0,0,0,0,0,0,0,0,0,0,0,0,0,0,0,0,0,0,0,0,0,0,0,0,0,0,0,0,0,0,0,0,0,0,0,0,0,0,0,0],"sum_hessian":[1.03732775E6,9.72514E5,6.481373E4,7.822775E5,1.9023655E5,7.040947E5,7.8182805E4,1.3903925E5,5.1197293E4,3.1386175E5,3.902329E5,6.950258E4,8.680231E3,1.3204842E5,6.9908296E3,1.656035E4,3.463694E4,7.034112E4,2.4352064E5,8.7697445E4,3.0253547E5,5.3249312E4,1.6253265E4,1.43689E3,7.243341E3,3.5653572E3,1.2848307E5,4.484211E3,2.506619E3,1.4272884E4,2.2874666E3,3.2444564E4,2.192379E3,6.0902484E4,9.438631E3,2.1423858E5,2.9282059E4,8.440024E4,3.2972034E3,9.9325516E4,2.0320997E5,3.6868215E4,1.6381097E4,1.5325293E4,9.279717E2,4.7967346E2,9.5721655E2,6.747231E3,4.9611002E2,1.616041E3,1.9493162E3,1.12426164E5,1.6056906E4,6.0652704E2,3.8776838E3,2.22549E3,2.8112903E2,6.0638677E3,8.209017E3,5.80819E2,1.7066475E3,1.3209591E4,1.9234973E4,1.5696936E3,6.226852E2],"tree_param":{"num_deleted":"0","num_feature":"29","num_nodes":"65","size_leaf_vector":"0"}},{"base_weights":[-5.5870526E-3,4.8382506E-2,-1.0330247E0,-3.0684397E-2,1.6607533E-1,-1.0630438E0,-3.092994E-1,-9.023919E-2,2.764807E-1,2.4683451E-2,2.756586E-1,-3.1647295E-1,-3.5271558E-1,-4.842964E-1,-5.4520596E-2,-1.8994518E-1,3.956787E-1,1.3142242E-1,-1.4499795E-1,4.0416512E-1,6.195852E-2,6.820919E-2,-5.921263E-1,-8.213418E-2,2.94986E-1,-7.1328914E-1,5.6157684E-1,4.6815005E-1,-2.199475E-3,5.6392197E-2,4.9384746E-1,-3.5642788E-1,3.1131465E-2,1.5173362E-1,4.79335E-1,1.9560458E-1,-9.710138E-2,2.6369175E-1,-8.909805E-2,-2.5786114E-1,-1.18747726E-1,-4.8448894E-2,2.1797707E-3,3.3611845E-2,1.4020331E-1,-3.377618E-1,-3.138977E-2,7.054372E-2,2.5385013E-1,8.6056106E-2,2.2376443E-1,1.9865498E-1,-9.515281E-2,1.021991E-1,-7.932136E-3,1.6203026E-1,5.9585303E-2,-2.3511907E-1,-3.764183E-2,1.0288651E-1,-1.115605E-1,-1.1892074E-2,1.9289495E-1,1.6113663E-1,-3.5681628E-2,7.7866755E-2,-1.1873669E-1,-2.114949E-2,-2.4727322E-1],"categories":[],"categories_nodes":[],"categories_segments":[],"categories_sizes":[],"default_left":[0,0,0,0,0,0,0,0,0,0,0,0,0,0,0,0,0,0,0,0,0,0,0,0,0,0,0,0,0,0,0,0,0,0,0,0,0,0,0,0,0,0,0,0,0,0,0,0,0,0,0,0,0,0,0,0,0,0,0,0,0,0,0,0,0,0,0,0,0],"id":9,"left_children":[1,3,5,7,9,11,-1,13,15,17,19,-1,-1,21,23,25,27,29,31,33,35,37,39,41,43,45,47,49,51,53,55,57,59,61,63,65,67,-1,-1,-1,-1,-1,-1,-1,-1,-1,-1,-1,-1,-1,-1,-1,-1,-1,-1,-1,-1,-1,-1,-1,-1,-1,-1,-1,-1,-1,-1,-1,-1],"loss_changes":[5.542982E4,8.837928E3,1.9375E0,1.0392249E4,5.913332E3,1.621582E0,0E0,6.6974565E3,5.129337E3,3.0181477E3,5.904536E3,0E0,0E0,2.3560918E3,4.210727E3,7.3862075E3,2.1187793E3,2.781614E3,2.3962769E3,2.5477012E3,1.7164158E3,1.9126301E3,1.7365918E3,2.8688264E3,1.00729443E3,2.7799004E3,7.1600195E2,3.1295566E3,2.3696707E3,1.9956025E3,2.3947314E2,2.885889E3,4.411665E3,2.8965486E3,3.5769062E3,1.6595328E3,7.130986E2,0E0,0E0,0E0,0E0,0E0,0E0,0E0,0E0,0E0,0E0,0E0,0E0,0E0,0E0,0E0,0E0,0E0,0E0,0E0,0E0,0E0,0E0,0E0,0E0,0E0,0E0,0E0,0E0,0E0,0E0,0E0,0E0],"parents":[2147483647,0,0,1,1,2,2,3,3,4,4,5,5,7,7,8,8,9,9,10,10,13,13,14,14,15,15,16,16,17,17,18,18,19,19,20,20,21,21,22,22,23,23,24,24,25,25,26,26,27,27,28,28,29,29,30,30,31,31,32,32,33,33,34,34,35,35,36,36],"right_children":[2,4,6,8,10,12,-1,14,16,18,20,-1,-1,22,24,26,28,30,32,34,36,38,40,42,44,46,48,50,52,54,56,58,60,62,64,66,68,-1,-1,-1,-1,-1,-1,-1,-1,-1,-1,-1,-1,-1,-1,-1,-1,-1,-1,-1,-1,-1,-1,-1,-1,-1,-1,-1,-1,-1,-1,-1,-1],"split_conditions":[6.782812E-1,-1.0260082E-1,7.7856904E-1,4.9429503E-1,-2.2622852E-1,3.2879797E-1,-3.092994E-1,-9.0261465E-1,-1.1107261E0,1.1093516E-1,5.725332E-1,-3.1647295E-1,-3.5271558E-1,-2.685856E-1,-1.7827943E-2,2.555698E0,1.324924E0,3.385704E-1,4.1798627E-1,-5.178055E-1,9.0470535E-1,-1.2914859E-1,-1.4326986E0,-3.6526266E-1,7.750928E-1,-1.7719526E0,3.8602314E0,1.3783969E0,7.3341584E-1,-5.9538865E-1,1.6781343E0,-9.537257E-2,9.966531E-2,4.5420623E-1,1.1437622E0,1.3352691E0,5.821812E-1,2.6369175E-1,-8.909805E-2,-2.5786114E-1,-1.18747726E-1,-4.8448894E-2,2.1797707E-3,3.3611845E-2,1.4020331E-1,-3.377618E-1,-3.138977E-2,7.054372E-2,2.5385013E-1,8.6056106E-2,2.2376443E-1,1.9865498E-1,-9.515281E-2,1.021991E-1,-7.932136E-3,1.6203026E-1,5.9585303E-2,-2.3511907E-1,-3.764183E-2,1.0288651E-1,-1.115605E-1,-1.1892074E-2,1.9289495E-1,1.6113663E-1,-3.5681628E-2,7.7866755E-2,-1.1873669E-1,-2.114949E-2,-2.4727322E-1],"split_indices":[0,18,0,15,27,18,0,23,18,11,23,0,0,27,14,15,17,1,18,15,27,25,23,0,27,23,15,15,13,26,18,23,15,18,18,18,15,0,0,0,0,0,0,0,0,0,0,0,0,0,0,0,0,0,0,0,0,0,0,0,0,0,0,0,0,0,0,0,0],"split_type":[0,0,0,0,0,0,0,0,0,0,0,0,0,0,0,0,0,0,0,0,0,0,0,0,0,0,0,0,0,0,0,0,0,0,0,0,0,0,0,0,0,0,0,0,0,0,0,0,0,0,0,0,0,0,0,0,0,0,0,0,0,0,0,0,0,0,0,0,0],"sum_hessian":[9.996279E5,9.4974056E5,4.9887312E4,5.6809256E5,3.8164797E5,3.1218735E3,4.6765438E4,4.7583572E5,9.2256836E4,1.6663947E5,2.1500852E5,2.9213433E3,2.0053047E2,3.9545582E4,4.3629012E5,1.8777852E4,7.3478984E4,1.02292234E5,6.4347234E4,1.3426727E5,8.074124E4,6.457678E3,3.3087902E4,4.043447E5,3.1945434E4,1.1069404E4,7.7084473E3,6.2157207E4,1.1321777E4,8.474852E4,1.7543715E4,2.9242646E4,3.510459E4,3.0809037E4,1.03458234E5,4.387563E4,3.6865617E4,2.0050306E3,4.452648E3,1.40055E4,1.9082402E4,2.1419711E5,1.901476E5,1.5497524E4,1.6447908E4,6.596831E3,4.472573E3,3.5911492E3,4.117298E3,3.7608992E4,2.4548213E4,3.640898E3,7.6808794E3,1.9121787E4,6.5626734E4,1.5166726E4,2.3769888E3,1.0259186E4,1.898346E4,1.9791188E4,1.5313403E4,2.2172367E4,8.63667E3,9.434553E4,9.112703E3,3.9594566E4,4.2810586E3,3.556552E4,1.3000957E3],"tree_param":{"num_deleted":"0","num_feature":"29","num_nodes":"69","size_leaf_vector":"0"}},{"base_weights":[-4.0672226E-3,3.5527866E-2,-3.068214E-1,-1.5701838E-2,1.793944E-1,-6.305331E-2,1.1749781E-1,1.4329298E-1,4.8901987E-1,-1.0923596E-1,4.6124678E-2,1.8742749E-1,4.033947E-2,8.6160034E-2,3.4880525E-1,5.873759E-1,1.5401115E-1,-1.3964899E-1,1.03528924E-1,1.9240303E-1,-1.6036874E-1,1.3569139E-1,3.514517E-1,-1.3653599E-1,1.3711102E-1,-1.800872E-1,1.2217461E-1,4.301928E-1,1.515677E-1,4.1899735E-1,7.599349E-1,4.1925737E-1,-1.9999567E-1,-1.119337E-1,-3.6500357E-2,1.0441096E-1,1.9105481E-3,3.0190235E-2,1.5550995E-1,-5.9750345E-2,1.17033295E-1,1.6360166E-2,7.9973266E-2,1.1653656E-1,-9.871828E-2,-8.253744E-2,1.238343E-2,-1.5235787E-2,7.1459636E-2,-7.808782E-2,1.6901417E-2,5.31519E-2,-4.1869685E-2,9.8139115E-2,1.5271653E-1,-8.548848E-3,8.222104E-2,6.5397814E-2,1.99609E-1,1.9086508E-1,2.7571562E-1,1.5071103E-1,-7.610441E-2,4.61164E-2,-1.1076462E-1],"categories":[],"categories_nodes":[],"categories_segments":[],"categories_sizes":[],"default_left":[0,0,0,0,0,0,0,0,0,0,0,0,0,0,0,0,0,0,0,0,0,0,0,0,0,0,0,0,0,0,0,0,0,0,0,0,0,0,0,0,0,0,0,0,0,0,0,0,0,0,0,0,0,0,0,0,0,0,0,0,0,0,0,0,0],"id":10,"left_children":[1,3,-1,5,7,9,11,13,15,17,19,21,23,25,27,29,31,33,35,37,39,41,43,45,47,49,51,53,55,57,59,61,63,-1,-1,-1,-1,-1,-1,-1,-1,-1,-1,-1,-1,-1,-1,-1,-1,-1,-1,-1,-1,-1,-1,-1,-1,-1,-1,-1,-1,-1,-1,-1,-1],"loss_changes":[3.8898676E4,6.84196E3,0E0,4.3176504E3,2.7247188E3,2.5464106E3,9.6869165E2,2.563288E3,8.386216E2,2.2965205E3,4.5346396E3,7.991426E2,1.4610192E3,1.6380195E3,7.6225977E2,5.713906E2,5.4266644E2,1.3034829E3,1.0544601E3,2.6285967E3,1.3296322E3,7.605172E2,5.687676E2,7.438754E2,1.0479471E3,3.859831E2,2.1661018E3,2.7306055E2,3.0602765E2,4.9313928E2,1.9068994E2,1.848985E2,1.4824435E2,0E0,0E0,0E0,0E0,0E0,0E0,0E0,0E0,0E0,0E0,0E0,0E0,0E0,0E0,0E0,0E0,0E0,0E0,0E0,0E0,0E0,0E0,0E0,0E0,0E0,0E0,0E0,0E0,0E0,0E0,0E0,0E0],"parents":[2147483647,0,0,1,1,3,3,4,4,5,5,6,6,7,7,8,8,9,9,10,10,11,11,12,12,13,13,14,14,15,15,16,16,17,17,18,18,19,19,20,20,21,21,22,22,23,23,24,24,25,25,26,26,27,27,28,28,29,29,30,30,31,31,32,32],"right_children":[2,4,-1,6,8,10,12,14,16,18,20,22,24,26,28,30,32,34,36,38,40,42,44,46,48,50,52,54,56,58,60,62,64,-1,-1,-1,-1,-1,-1,-1,-1,-1,-1,-1,-1,-1,-1,-1,-1,-1,-1,-1,-1,-1,-1,-1,-1,-1,-1,-1,-1,-1,-1,-1,-1],"split_conditions":[7.106402E-1,7.5914574E-1,-3.068214E-1,9.433941E-2,1.5457532E0,-1.16277054E-1,6.197461E-1,1.0309563E0,2.315358E0,8.244353E-2,1.3127899E-1,5.0199234E-1,2.1089646E-1,-1.2059335E0,9.27635E-1,9.736576E-1,5.180244E-1,-9.991618E-2,1.3127899E-1,3.8161972E-1,2.2012835E0,-4.1335794E-1,9.057289E-1,3.6095124E-1,-4.073509E-1,1.9525664E-1,1.0526391E0,6.259959E-1,-2.9080916E-2,3.9244092E-1,3.0020144E0,1.0770086E0,-1.7492346E0,-1.119337E-1,-3.6500357E-2,1.0441096E-1,1.9105481E-3,3.0190235E-2,1.5550995E-1,-5.9750345E-2,1.17033295E-1,1.6360166E-2,7.9973266E-2,1.1653656E-1,-9.871828E-2,-8.253744E-2,1.238343E-2,-1.5235787E-2,7.1459636E-2,-7.808782E-2,1.6901417E-2,5.31519E-2,-4.1869685E-2,9.8139115E-2,1.5271653E-1,-8.548848E-3,8.222104E-2,6.5397814E-2,1.99609E-1,1.9086508E-1,2.7571562E-1,1.5071103E-1,-7.610441E-2,4.61164E-2,-1.1076462E-1],"split_indices":[0,20,0,24,21,1,22,22,13,15,11,4,27,5,28,28,17,23,11,1,19,19,23,18,18,18,5,27,21,4,21,18,23,0,0,0,0,0,0,0,0,0,0,0,0,0,0,0,0,0,0,0,0,0,0,0,0,0,0,0,0,0,0,0,0],"split_type":[0,0,0,0,0,0,0,0,0,0,0,0,0,0,0,0,0,0,0,0,0,0,0,0,0,0,0,0,0,0,0,0,0,0,0,0,0,0,0,0,0,0,0,0,0,0,0,0,0,0,0,0,0,0,0,0,0,0,0,0,0,0,0,0,0],"sum_hessian":[9.644035E5,9.2832125E5,3.6082297E4,6.8455694E5,2.437643E5,5.050249E5,1.7953203E5,2.183113E5,2.5452992E4,3.5490072E5,1.5012419E5,9.417682E4,8.53552E4,1.7082338E5,4.748792E4,1.9675627E4,5.7773657E3,3.105154E5,4.438533E4,8.787458E4,6.2249605E4,7.1596016E4,2.2580805E4,3.0184566E4,5.517064E4,2.0353176E4,1.504702E5,3.3615668E4,1.3872255E4,9.960178E3,9.715449E3,3.3026265E3,2.4747393E3,2.2203963E4,2.8831144E5,1.2621158E4,3.176417E4,6.8571E4,1.9303576E4,5.815159E4,4.098018E3,4.4194254E4,2.740176E4,2.1416684E4,1.164122E3,1.6963004E4,1.3221561E4,1.9299037E4,3.58716E4,1.519745E4,5.155726E3,1.2434287E5,2.6127332E4,1.457424E4,1.9041426E4,5.616881E3,8.255374E3,5.486085E3,4.4740933E3,5.468523E3,4.2469263E3,2.9397947E3,3.6283197E2,8.008429E2,1.6738962E3],"tree_param":{"num_deleted":"0","num_feature":"29","num_nodes":"65","size_leaf_vector":"0"}},{"base_weights":[-3.6888605E-3,2.552009E-2,-3.0501336E-1,-1.0232674E-1,6.620455E-2,-1.4574249E-1,5.060344E-1,-3.6434967E-2,1.1947507E-1,-4.723441E-1,-1.03837304E-1,5.78934E-1,-6.417724E-1,-8.597762E-2,4.1244683E-1,5.649056E-3,1.965744E-1,-1.7087135E-1,-5.488843E-1,-2.5266987E-1,-5.7502188E-2,4.2143267E-1,6.699716E-1,-3.3530065E-1,-8.1624436E-1,-5.72315E-1,-1.9527663E-2,-1.3366082E-1,5.358917E-1,1.5742095E-1,-8.971054E-2,2.8641602E-1,-1.3608373E-2,-8.7223575E-2,-1.3431365E-2,-2.0173115E-1,-9.783397E-2,-9.3865044E-2,-1.7727451E-2,-4.736837E-3,-6.2598415E-2,5.645049E-2,1.5789168E-1,2.0855041E-1,1.8587986E-2,-1.4092149E-1,1.85473E-2,-2.7072895E-1,-1.2535651E-1,2.9287788E-1,-2.1251367E-1,-5.090083E-2,4.061847E-2,-2.1122482E-1,1.5502998E-1,-7.816372E-3,1.8968901E-1,2.8331969E-2,1.3565236E-1,-7.425573E-3,-1.2052996E-1,5.9907377E-2,1.1781157E-1,3.021111E-2,-6.720673E-2],"categories":[],"categories_nodes":[],"categories_segments":[],"categories_sizes":[],"default_left":[0,0,0,0,0,0,0,0,0,0,0,0,0,0,0,0,0,0,0,0,0,0,0,0,0,0,0,0,0,0,0,0,0,0,0,0,0,0,0,0,0,0,0,0,0,0,0,0,0,0,0,0,0,0,0,0,0,0,0,0,0,0,0,0,0],"id":11,"left_children":[1,3,-1,5,7,9,11,13,15,17,19,21,23,25,27,29,31,33,35,37,39,41,43,45,47,49,51,53,55,57,59,61,63,-1,-1,-1,-1,-1,-1,-1,-1,-1,-1,-1,-1,-1,-1,-1,-1,-1,-1,-1,-1,-1,-1,-1,-1,-1,-1,-1,-1,-1,-1,-1,-1],"loss_changes":[2.7859203E4,4.7600103E3,0E0,5.8351455E3,3.7957756E3,2.822151E3,1.2317366E3,5.2750547E3,4.0108032E3,5.409795E2,1.2603197E3,1.9813135E2,4.674356E1,6.903651E3,1.5895225E3,2.6710796E3,5.145079E3,7.177867E1,5.1448926E2,5.0572266E2,8.78766E2,1.2396185E2,1.3427124E2,1.7149883E1,1.88378E1,5.411449E3,4.371672E3,1.6134562E3,1.0418262E3,1.3219724E3,2.2975342E3,1.7594268E3,1.962524E3,0E0,0E0,0E0,0E0,0E0,0E0,0E0,0E0,0E0,0E0,0E0,0E0,0E0,0E0,0E0,0E0,0E0,0E0,0E0,0E0,0E0,0E0,0E0,0E0,0E0,0E0,0E0,0E0,0E0,0E0,0E0,0E0],"parents":[2147483647,0,0,1,1,3,3,4,4,5,5,6,6,7,7,8,8,9,9,10,10,11,11,12,12,13,13,14,14,15,15,16,16,17,17,18,18,19,19,20,20,21,21,22,22,23,23,24,24,25,25,26,26,27,27,28,28,29,29,30,30,31,31,32,32],"right_children":[2,4,-1,6,8,10,12,14,16,18,20,22,24,26,28,30,32,34,36,38,40,42,44,46,48,50,52,54,56,58,60,62,64,-1,-1,-1,-1,-1,-1,-1,-1,-1,-1,-1,-1,-1,-1,-1,-1,-1,-1,-1,-1,-1,-1,-1,-1,-1,-1,-1,-1,-1,-1,-1,-1],"split_conditions":[7.468109E-1,-5.954567E-1,-3.0501336E-1,6.837596E-1,-4.640068E-1,1.5187727E-2,2.0644913E0,1.7485423E0,-1.3134868E-1,-1.4737803E-1,-7.170082E-1,-5.6426734E-1,2.6310167E0,-1.5417446E0,-1.3845634E0,-3.3468196E-1,6.0433805E-1,-3.9482188E-1,7.3341584E-1,2.206761E-1,-4.8130265E-1,8.5048807E-1,2.315358E0,8.3098584E-1,8.230452E-1,-6.754396E-2,7.700099E-1,3.7137544E0,2.947635E-1,3.8347248E-2,1.5243869E0,-5.3400077E-2,9.072467E-1,-8.7223575E-2,-1.3431365E-2,-2.0173115E-1,-9.783397E-2,-9.3865044E-2,-1.7727451E-2,-4.736837E-3,-6.2598415E-2,5.645049E-2,1.5789168E-1,2.0855041E-1,1.8587986E-2,-1.4092149E-1,1.85473E-2,-2.7072895E-1,-1.2535651E-1,2.9287788E-1,-2.1251367E-1,-5.090083E-2,4.061847E-2,-2.1122482E-1,1.5502998E-1,-7.816372E-3,1.8968901E-1,2.8331969E-2,1.3565236E-1,-7.425573E-3,-1.2052996E-1,5.9907377E-2,1.1781157E-1,3.021111E-2,-6.720673E-2],"split_indices":[0,15,0,18,18,23,18,15,27,11,19,19,18,23,18,17,23,19,13,26,25,18,13,20,17,14,27,15,27,15,13,15,27,0,0,0,0,0,0,0,0,0,0,0,0,0,0,0,0,0,0,0,0,0,0,0,0,0,0,0,0,0,0,0,0],"split_type":[0,0,0,0,0,0,0,0,0,0,0,0,0,0,0,0,0,0,0,0,0,0,0,0,0,0,0,0,0,0,0,0,0,0,0,0,0,0,0,0,0,0,0,0,0,0,0,0,0,0,0,0,0,0,0,0,0,0,0,0,0,0,0,0,0],"sum_hessian":[9.4152725E5,9.151415E5,2.6385734E4,2.2092025E5,6.9422125E5,2.0620516E5,1.4715091E4,2.3719795E5,4.570233E5,2.3447695E4,1.8275745E5,1.3836782E4,8.783081E2,2.1362156E5,2.3576398E4,1.8455527E5,2.7246803E5,4.74835E3,1.8699346E4,4.338772E4,1.3936973E5,5.07035E3,8.766432E3,3.196838E2,5.5862427E2,2.5678299E4,1.8794327E5,4.3467466E3,1.9229652E4,7.121332E4,1.13341945E5,1.9087786E5,8.159018E4,2.4336028E3,2.3147476E3,1.2026958E4,6.6723877E3,3.3093266E4,1.0294453E4,1.09228875E5,3.014086E4,1.5734294E3,3.496921E3,8.417463E3,3.4896896E2,2.3869589E2,8.098791E1,4.5822845E2,1.00395836E2,2.073471E3,2.3604828E4,9.544425E4,9.249901E4,2.315756E3,2.0309902E3,2.8159817E3,1.641367E4,5.867693E4,1.253639E4,9.381432E4,1.9527629E4,1.0511446E5,8.576339E4,5.2868645E4,2.8721533E4],"tree_param":{"num_deleted":"0","num_feature":"29","num_nodes":"65","size_leaf_vector":"0"}},{"base_weights":[-2.7603195E-3,1.9733228E-2,-3.0371824E-1,-4.925151E-2,9.469209E-2,-7.4663796E-2,1.4314364E-1,8.4017366E-2,4.8014164E-1,-2.7938884E-1,-5.077203E-2,8.024027E-2,3.653675E-1,1.05687596E-1,-1.1975304E-1,5.446923E-1,1.9684355E-1,-3.629833E-1,-1.5664482E-1,-1.5343691E-2,-2.4243855E-1,-2.9430363E-1,1.07019275E-1,4.128787E-1,1.4135186E-3,-1.0002836E-1,1.322726E-1,-1.7273174E-1,4.8806757E-2,5.598629E-1,-9.440732E-2,3.592562E-2,3.4782496E-1,2.349839E-2,-1.1938878E-1,-5.90209E-2,2.8394148E-2,-8.091355E-3,1.3368696E-1,-3.7553973E-2,-9.6021704E-2,-1.6939527E-1,1.3633014E-1,4.8301388E-2,-3.340391E-2,8.3933726E-2,1.5921694E-1,1.177801E-1,-2.2986246E-2,-5.2540533E-2,7.1120188E-3,1.6297331E-1,3.634445E-2,-3.2298494E-2,-9.4983205E-2,2.8344017E-2,-1.4292924E-1,1.08781286E-1,1.7918462E-1,8.609935E-2,-1.5556158E-1,-2.9209372E-2,5.7719003E-2,6.564395E-2,1.4011443E-1],"categories":[],"categories_nodes":[],"categories_segments":[],"categories_sizes":[],"default_left":[0,0,0,0,0,0,0,0,0,0,0,0,0,0,0,0,0,0,0,0,0,0,0,0,0,0,0,0,0,0,0,0,0,0,0,0,0,0,0,0,0,0,0,0,0,0,0,0,0,0,0,0,0,0,0,0,0,0,0,0,0,0,0,0,0],"id":12,"left_children":[1,3,-1,5,7,9,11,13,15,17,19,21,23,25,27,29,31,33,35,37,39,41,43,45,47,49,51,53,55,57,59,61,63,-1,-1,-1,-1,-1,-1,-1,-1,-1,-1,-1,-1,-1,-1,-1,-1,-1,-1,-1,-1,-1,-1,-1,-1,-1,-1,-1,-1,-1,-1,-1,-1],"loss_changes":[2.0917115E4,4.6589395E3,0E0,2.293938E3,1.776585E3,2.027123E3,7.6517993E2,1.8553105E3,2.1267358E2,4.4434863E2,2.5201401E3,4.2796637E2,2.088247E2,2.0769492E3,3.6067072E2,9.192627E1,5.2485367E1,3.9774048E2,1.7681506E2,1.6789104E3,5.270283E2,5.765892E2,4.6943356E2,1.6739978E2,4.262776E1,4.0391147E2,1.5374722E3,2.8766064E2,2.3175816E2,6.810571E1,3.582991E1,2.1856981E1,1.7043243E1,0E0,0E0,0E0,0E0,0E0,0E0,0E0,0E0,0E0,0E0,0E0,0E0,0E0,0E0,0E0,0E0,0E0,0E0,0E0,0E0,0E0,0E0,0E0,0E0,0E0,0E0,0E0,0E0,0E0,0E0,0E0,0E0],"parents":[2147483647,0,0,1,1,3,3,4,4,5,5,6,6,7,7,8,8,9,9,10,10,11,11,12,12,13,13,14,14,15,15,16,16,17,17,18,18,19,19,20,20,21,21,22,22,23,23,24,24,25,25,26,26,27,27,28,28,29,29,30,30,31,31,32,32],"right_children":[2,4,-1,6,8,10,12,14,16,18,20,22,24,26,28,30,32,34,36,38,40,42,44,46,48,50,52,54,56,58,60,62,64,-1,-1,-1,-1,-1,-1,-1,-1,-1,-1,-1,-1,-1,-1,-1,-1,-1,-1,-1,-1,-1,-1,-1,-1,-1,-1,-1,-1,-1,-1,-1,-1],"split_conditions":[7.1211106E-1,-3.589649E-1,-3.0371824E-1,4.8561978E-1,1.7418011E0,-1.3514957E0,8.950654E-1,1.3751757E0,1.3933947E0,-7.930353E-1,1.1873194E0,-8.079061E-1,1.7368234E0,-1.3514957E0,1.7578536E-1,2.6754456E0,2.0816042E0,-1.8351421E0,4.1129574E-1,1.7418011E0,7.3240614E-1,3.0691638E0,1.2448056E0,7.5603575E-2,-1.2573364E-1,-8.950525E-2,-1.7416795E0,1.5494113E0,2.315358E0,-8.593583E-1,1.3021554E0,-4.964614E-2,-1.5657897E-1,2.349839E-2,-1.1938878E-1,-5.90209E-2,2.8394148E-2,-8.091355E-3,1.3368696E-1,-3.7553973E-2,-9.6021704E-2,-1.6939527E-1,1.3633014E-1,4.8301388E-2,-3.340391E-2,8.3933726E-2,1.5921694E-1,1.177801E-1,-2.2986246E-2,-5.2540533E-2,7.1120188E-3,1.6297331E-1,3.634445E-2,-3.2298494E-2,-9.4983205E-2,2.8344017E-2,-1.4292924E-1,1.08781286E-1,1.7918462E-1,8.609935E-2,-1.5556158E-1,-2.9209372E-2,5.7719003E-2,6.564395E-2,1.4011443E-1],"split_indices":[0,0,0,4,8,2,20,5,2,8,2,18,18,2,18,17,8,8,8,8,8,15,18,18,22,18,8,2,13,18,15,17,25,0,0,0,0,0,0,0,0,0,0,0,0,0,0,0,0,0,0,0,0,0,0,0,0,0,0,0,0,0,0,0,0],"split_type":[0,0,0,0,0,0,0,0,0,0,0,0,0,0,0,0,0,0,0,0,0,0,0,0,0,0,0,0,0,0,0,0,0,0,0,0,0,0,0,0,0,0,0,0,0,0,0,0,0,0,0,0,0,0,0,0,0,0,0,0,0,0,0,0,0],"sum_hessian":[9.210413E5,9.009697E5,2.0071648E4,4.6918156E5,4.317881E5,4.1444122E5,5.4740355E4,4.201535E5,1.1634603E4,4.331036E4,3.7113088E5,4.2664867E4,1.2075488E4,3.7976716E5,4.038635E4,9.474807E3,2.1597961E3,2.5762756E4,1.7547604E4,3.1323284E5,5.7898023E4,2.8462244E3,3.9818645E4,1.0681032E4,1.3944557E3,4.346102E4,3.3630612E5,3.0728344E4,9.658009E3,9.255233E3,2.1957245E2,1.0460939E3,1.1137023E3,1.8919542E3,2.38708E4,1.5133414E4,2.4141904E3,3.0552712E5,7.705716E3,2.3064232E4,3.483379E4,2.0913462E3,7.5487823E2,3.1926014E4,7.892631E3,5.0174434E3,5.663589E3,2.3123608E2,1.1632196E3,2.7044617E4,1.64164E4,8.862155E3,3.2744397E5,2.1160246E4,9.568099E3,8.886115E3,7.718935E2,1.4774412E3,7.7777925E3,1.1577959E2,1.0379286E2,5.650946E2,4.8099924E2,5.362545E2,5.774478E2],"tree_param":{"num_deleted":"0","num_feature":"29","num_nodes":"65","size_leaf_vector":"0"}},{"base_weights":[-2.5711567E-3,1.5545787E-2,-9.460271E-1,-1.6216986E-1,3.5111208E-2,-6.474595E-1,-3.0271274E-1,-1.9200923E-1,1.5394342E-1,6.1208546E-2,-1.1919658E-1,-8.0426264E-1,-4.5404443E-1,-2.1165703E-1,1.16663955E-1,-6.864011E-2,2.7748838E-1,2.4847409E-1,4.0920284E-2,-1.4430228E-1,1.9313663E-1,-8.3992916E-1,-5.1847035E-1,-5.8665985E-1,-3.50298E-1,-2.372768E-1,-1.7984442E-2,1.5832977E-1,-3.8076714E-1,-1.99444E-1,1.0923239E-1,4.6228024E-1,2.090859E-1,2.0823273E-1,5.139588E-1,3.61169E-1,3.0137636E-2,1.9291314E-1,-1.6224626E-1,-3.8433153E-2,3.0858558E-1,-8.5570794E-1,-6.085608E-1,-5.7180434E-1,-9.462158E-2,-6.755349E-1,-1.5160808E-1,-4.7363928E-1,-2.1524651E-1,-8.1100255E-2,-1.6257472E-2,3.201684E-2,-1.3457796E-1,-2.9155897E-2,6.4586446E-2,2.6439974E-2,-2.170756E-1,4.6010375E-1,-6.5011516E-2,-2.673856E-2,6.6431604E-2,4.1944128E-2,1.5487082E-1,4.5168735E-2,1.3552526E-1,6.946139E-2,-8.012624E-2,1.7218341E-1,2.8959904E-2,4.3436956E-2,1.3180646E-1,5.8129067E-3,9.645631E-2,3.260594E-2,1.2785245E-1,-5.730489E-2,6.7753163E-3,-6.5676376E-2,3.8213138E-2,7.881812E-2,1.5379348E-1,-2.669437E-1,-2.3899074E-1,6.160295E-2,-1.8982866E-1,-1.9369605E-1,-9.498903E-2,9.27821E-3,-1.9554292E-1,-2.1963665E-1,-1.4525956E-1,-6.937171E-2,7.10384E-2,-1.7969128E-1,-4.9867075E-2,-3.8904805E-2,-1.1061808E-1],"categories":[],"categories_nodes":[],"categories_segments":[],"categories_sizes":[],"default_left":[0,0,0,0,0,0,0,0,0,0,0,0,0,0,0,0,0,0,0,0,0,0,0,0,0,0,0,0,0,0,0,0,0,0,0,0,0,0,0,0,0,0,0,0,0,0,0,0,0,0,0,0,0,0,0,0,0,0,0,0,0,0,0,0,0,0,0,0,0,0,0,0,0,0,0,0,0,0,0,0,0,0,0,0,0,0,0,0,0,0,0,0,0,0,0,0,0],"id":13,"left_children":[1,3,5,7,9,11,-1,13,15,17,19,21,23,25,27,29,31,33,35,37,39,41,43,45,47,49,51,53,55,57,59,61,63,65,67,69,71,73,75,77,79,81,83,85,87,89,91,93,95,-1,-1,-1,-1,-1,-1,-1,-1,-1,-1,-1,-1,-1,-1,-1,-1,-1,-1,-1,-1,-1,-1,-1,-1,-1,-1,-1,-1,-1,-1,-1,-1,-1,-1,-1,-1,-1,-1,-1,-1,-1,-1,-1,-1,-1,-1,-1,-1],"loss_changes":[1.555376E4,3.1044448E3,3.2191406E2,8.352578E2,3.2388738E3,9.0337524E1,0E0,4.9072266E2,2.1005591E2,2.613662E3,9.1234973E2,1.638733E1,1.8249023E1,3.774353E2,1.0042645E2,6.347041E1,6.1990967E1,7.183042E2,2.1433203E3,6.516736E2,2.3144638E2,4.829834E0,4.144356E0,2.2604431E1,1.2475403E1,4.0658765E2,4.773385E2,6.506159E1,6.027431E1,4.735348E1,2.5754845E1,2.3001709E1,5.086946E1,6.469375E2,2.215581E2,3.4197412E2,1.8828805E3,1.06861084E2,5.437346E2,8.624379E1,5.392456E1,2.050476E0,2.0412903E0,2.9005585E0,1.5561267E0,4.922226E0,3.175763E0,1.50733795E1,4.7094326E0,0E0,0E0,0E0,0E0,0E0,0E0,0E0,0E0,0E0,0E0,0E0,0E0,0E0,0E0,0E0,0E0,0E0,0E0,0E0,0E0,0E0,0E0,0E0,0E0,0E0,0E0,0E0,0E0,0E0,0E0,0E0,0E0,0E0,0E0,0E0,0E0,0E0,0E0,0E0,0E0,0E0,0E0,0E0,0E0,0E0,0E0,0E0,0E0],"parents":[2147483647,0,0,1,1,2,2,3,3,4,4,5,5,7,7,8,8,9,9,10,10,11,11,12,12,13,13,14,14,15,15,16,16,17,17,18,18,19,19,20,20,21,21,22,22,23,23,24,24,25,25,26,26,27,27,28,28,29,29,30,30,31,31,32,32,33,33,34,34,35,35,36,36,37,37,38,38,39,39,40,40,41,41,42,42,43,43,44,44,45,45,46,46,47,47,48,48],"right_children":[2,4,6,8,10,12,-1,14,16,18,20,22,24,26,28,30,32,34,36,38,40,42,44,46,48,50,52,54,56,58,60,62,64,66,68,70,72,74,76,78,80,82,84,86,88,90,92,94,96,-1,-1,-1,-1,-1,-1,-1,-1,-1,-1,-1,-1,-1,-1,-1,-1,-1,-1,-1,-1,-1,-1,-1,-1,-1,-1,-1,-1,-1,-1,-1,-1,-1,-1,-1,-1,-1,-1,-1,-1,-1,-1,-1,-1,-1,-1,-1,-1],"split_conditions":[6.7144483E-1,-1.373326E0,8.0421585E-1,1.9490832E0,1.2241142E0,-4.992207E-1,-3.0271274E-1,4.513511E-1,6.44512E-1,-7.8332055E-1,1.9490832E0,6.1543062E-2,-2.7930555E-1,4.9614692E-1,2.9710722E-1,-2.050545E-2,-2.2477124E0,9.292099E-1,-1.606159E0,-6.4616567E-1,6.44512E-1,-4.236832E-2,8.071976E-1,4.9614692E-1,-3.0792713E-1,1.7762288E-1,1.5243869E0,-8.159702E-1,-6.7451656E-2,-1.8946291E0,-1.1843165E0,-8.782781E-1,3.279708E-1,1.0780079E0,1.0780079E0,-1.0494744E0,1.5281726E0,1.40482E0,4.16918E-1,-1.3873896E-1,3.033304E-1,-3.6875305E-1,-1.8257958E0,4.16918E-1,6.381314E-1,1.8367736E-1,3.222356E-1,8.6606455E-1,4.5288566E-1,-8.1100255E-2,-1.6257472E-2,3.201684E-2,-1.3457796E-1,-2.9155897E-2,6.4586446E-2,2.6439974E-2,-2.170756E-1,4.6010375E-1,-6.5011516E-2,-2.673856E-2,6.6431604E-2,4.1944128E-2,1.5487082E-1,4.5168735E-2,1.3552526E-1,6.946139E-2,-8.012624E-2,1.7218341E-1,2.8959904E-2,4.3436956E-2,1.3180646E-1,5.8129067E-3,9.645631E-2,3.260594E-2,1.2785245E-1,-5.730489E-2,6.7753163E-3,-6.5676376E-2,3.8213138E-2,7.881812E-2,1.5379348E-1,-2.669437E-1,-2.3899074E-1,6.160295E-2,-1.8982866E-1,-1.9369605E-1,-9.498903E-2,9.27821E-3,-1.9554292E-1,-2.1963665E-1,-1.4525956E-1,-6.937171E-2,7.10384E-2,-1.7969128E-1,-4.9867075E-2,-3.8904805E-2,-1.1061808E-1],"split_indices":[0,5,0,22,5,25,0,8,20,26,22,18,15,18,2,25,8,21,8,8,20,15,17,18,18,15,13,18,17,23,23,18,18,18,18,2,8,20,18,25,18,18,8,18,18,18,25,15,23,0,0,0,0,0,0,0,0,0,0,0,0,0,0,0,0,0,0,0,0,0,0,0,0,0,0,0,0,0,0,0,0,0,0,0,0,0,0,0,0,0,0,0,0,0,0,0,0],"split_type":[0,0,0,0,0,0,0,0,0,0,0,0,0,0,0,0,0,0,0,0,0,0,0,0,0,0,0,0,0,0,0,0,0,0,0,0,0,0,0,0,0,0,0,0,0,0,0,0,0,0,0,0,0,0,0,0,0,0,0,0,0,0,0,0,0,0,0,0,0,0,0,0,0,0,0,0,0,0,0,0,0,0,0,0,0,0,0,0,0,0,0,0,0,0,0,0,0],"sum_hessian":[9.0997175E5,8.92828E5,1.7143766E4,8.854581E4,8.042822E5,2.989714E3,1.4154051E4,8.090885E4,7.63696E3,6.8793556E5,1.1634665E5,1.649386E3,1.3403281E3,7.60673E4,4.841554E3,2.726048E3,4.9109116E3,6.7244195E4,6.206914E5,1.07690875E5,8.655778E3,1.4646592E3,1.8472672E2,5.862679E2,7.5406024E2,6.71802E4,8.887089E3,4.4679883E3,3.7356583E2,1.5707954E3,1.1552527E3,1.3251667E3,3.585745E3,5.8394695E4,8.849502E3,2.021665E4,6.004747E5,5.4404507E3,1.0225042E5,2.8798948E3,5.7758833E3,1.368624E3,9.6035194E1,1.6377E2,2.0956707E1,4.8635873E2,9.9909164E1,3.9280652E2,3.6125372E2,5.6905094E4,1.027511E4,6.8919E3,1.9951893E3,8.1430365E2,3.6536848E3,1.5808415E2,2.1548169E2,1.462375E1,1.5561716E3,4.17461E2,7.3779175E2,1.9046216E2,1.1347046E3,2.8903103E3,6.9543494E2,5.5665875E4,2.7288179E3,7.7372515E3,1.1122506E3,5.3668228E3,1.4849828E4,5.7908906E5,2.138567E4,3.998227E3,1.4422238E3,8.847821E4,1.377221E4,1.3787621E3,1.5011328E3,4.717909E3,1.0579742E3,8.587662E2,5.0985785E2,2.5570068E0,9.347819E1,1.2582515E2,3.794486E1,1.7873775E1,3.0829318E0,3.7316876E2,1.1318999E2,8.324648E1,1.666268E1,2.783687E2,1.14437775E2,2.3313062E2,1.2812312E2],"tree_param":{"num_deleted":"0","num_feature":"29","num_nodes":"97","size_leaf_vector":"0"}},{"base_weights":[-2.229468E-3,1.0423623E-2,-3.020466E-1,-1.2752321E-1,3.1673945E-2,-1.7934962E-1,3.98798E-1,-3.439594E-2,8.3650105E-2,-3.4080032E-1,-5.5873137E-2,-7.549734E-2,6.412242E-1,-1.4268376E-1,8.806985E-3,1.4651872E-1,-5.187643E-2,-6.944412E-1,-1.610322E-1,-1.5665019E-1,3.2212112E-2,-1.19555E0,4.2967045E-1,7.1601367E-1,-3.0552265E-1,-2.407069E-1,1.7759286E-1,-6.320431E-2,1.1315575E-1,8.881557E-2,3.0518383E-1,4.031331E-3,-1.759578E-1,-1.6064899E-1,-3.7900323E-1,-5.934589E-2,1.4735927E-1,-2.2239514E-2,-1.1297687E-1,-3.837025E-1,2.3122307E-2,-5.6115514E-1,-1.3631646E-1,-2.1626867E-1,1.7327459E-1,7.676128E-2,2.3203065E-1,-2.0181382E-1,1.03259064E-1,-1.2163139E-2,-9.567476E-2,1.3713361E-1,-2.875636E-2,-3.1585783E-2,1.9170154E-2,4.1343007E-2,-9.289226E-2,9.301398E-3,1.22142226E-1,1.1415025E-1,-1.5171316E-1,-5.8786105E-2,1.2024597E-2,-3.246153E-2,-1.2875149E-1],"categories":[],"categories_nodes":[],"categories_segments":[],"categories_sizes":[],"default_left":[0,0,0,0,0,0,0,0,0,0,0,0,0,0,0,0,0,0,0,0,0,0,0,0,0,0,0,0,0,0,0,0,0,0,0,0,0,0,0,0,0,0,0,0,0,0,0,0,0,0,0,0,0,0,0,0,0,0,0,0,0,0,0,0,0],"id":14,"left_children":[1,3,-1,5,7,9,11,13,15,17,19,21,23,25,27,29,31,33,35,37,39,41,43,45,47,49,51,53,55,57,59,61,63,-1,-1,-1,-1,-1,-1,-1,-1,-1,-1,-1,-1,-1,-1,-1,-1,-1,-1,-1,-1,-1,-1,-1,-1,-1,-1,-1,-1,-1,-1,-1,-1],"loss_changes":[1.1435285E4,2.604369E3,0E0,3.234947E3,2.643685E3,2.1522402E3,1.2224363E3,1.5857994E3,3.6712417E3,2.9742524E3,5.4306757E2,2.0356426E3,4.9836816E2,3.0348872E3,1.8207068E3,2.6947852E3,9.471924E2,1.425085E3,7.443825E2,5.17817E2,1.9203987E3,5.58572E2,4.2239084E2,1.7209033E2,1.2328093E2,1.158665E3,1.7315334E3,7.6682764E2,1.031321E3,3.9720776E3,4.794308E3,6.786404E2,7.2756433E2,0E0,0E0,0E0,0E0,0E0,0E0,0E0,0E0,0E0,0E0,0E0,0E0,0E0,0E0,0E0,0E0,0E0,0E0,0E0,0E0,0E0,0E0,0E0,0E0,0E0,0E0,0E0,0E0,0E0,0E0,0E0,0E0],"parents":[2147483647,0,0,1,1,3,3,4,4,5,5,6,6,7,7,8,8,9,9,10,10,11,11,12,12,13,13,14,14,15,15,16,16,17,17,18,18,19,19,20,20,21,21,22,22,23,23,24,24,25,25,26,26,27,27,28,28,29,29,30,30,31,31,32,32],"right_children":[2,4,-1,6,8,10,12,14,16,18,20,22,24,26,28,30,32,34,36,38,40,42,44,46,48,50,52,54,56,58,60,62,64,-1,-1,-1,-1,-1,-1,-1,-1,-1,-1,-1,-1,-1,-1,-1,-1,-1,-1,-1,-1,-1,-1,-1,-1,-1,-1,-1,-1,-1,-1,-1,-1],"split_conditions":[7.071184E-1,-7.692049E-1,-3.020466E-1,2.3942056E0,2.0411937E-1,-3.6382833E-1,-2.5822237E0,2.332795E-1,6.361433E-1,-5.9516627E-1,8.1829697E-1,3.2462022E0,1.7512218E0,5.462894E-1,-1.4554309E0,1.4799044E-1,9.089411E-1,-2.412186E-1,7.7057886E-1,2.9414958E-1,-2.2187376E0,-2.7049003E0,3.6062255E0,-1.5355427E0,3.8794908E-1,-2.0642745E-1,2.0236826E-2,1.5633903E-1,1.3756243E0,2.497071E-1,7.533389E-1,-7.091138E-1,-3.3357555E-1,-1.6064899E-1,-3.7900323E-1,-5.934589E-2,1.4735927E-1,-2.2239514E-2,-1.1297687E-1,-3.837025E-1,2.3122307E-2,-5.6115514E-1,-1.3631646E-1,-2.1626867E-1,1.7327459E-1,7.676128E-2,2.3203065E-1,-2.0181382E-1,1.03259064E-1,-1.2163139E-2,-9.567476E-2,1.3713361E-1,-2.875636E-2,-3.1585783E-2,1.9170154E-2,4.1343007E-2,-9.289226E-2,9.301398E-3,1.22142226E-1,1.1415025E-1,-1.5171316E-1,-5.8786105E-2,1.2024597E-2,-3.246153E-2,-1.2875149E-1],"split_indices":[0,18,0,15,27,17,23,23,23,23,27,19,17,18,27,15,27,1,15,14,23,23,15,18,27,22,15,26,18,18,18,19,15,0,0,0,0,0,0,0,0,0,0,0,0,0,0,0,0,0,0,0,0,0,0,0,0,0,0,0,0,0,0,0,0],"split_type":[0,0,0,0,0,0,0,0,0,0,0,0,0,0,0,0,0,0,0,0,0,0,0,0,0,0,0,0,0,0,0,0,0,0,0,0,0,0,0,0,0,0,0,0,0,0,0,0,0,0,0,0,0,0,0,0,0,0,0,0,0,0,0,0,0],"sum_hessian":[8.9962094E5,8.884319E5,1.118903E4,1.1859105E5,7.698408E5,1.0796088E5,1.063016E4,3.3896425E5,4.308766E5,4.6785336E4,6.1175547E4,3.5958127E3,7.0343477E3,9.6666945E4,2.422973E5,2.9433784E5,1.3653877E5,1.5766506E4,3.101883E4,2.8531871E4,3.2643678E4,1.1172628E3,2.4785498E3,6.5195693E3,5.1477783E2,7.4014484E4,2.2652459E4,1.4336277E5,9.893454E4,2.1584217E5,7.849568E4,9.412811E4,4.241065E4,1.2324992E4,3.4415137E3,2.9363357E4,1.6554719E3,2.0748596E4,7.7832744E3,1.0790157E3,3.1564662E4,5.839462E2,5.333166E2,2.8189395E2,2.196656E3,7.23927E2,5.7956426E3,3.2887708E2,1.8590079E2,2.079488E4,5.3219605E4,1.1201531E4,1.1450929E4,1.0770437E5,3.5658395E4,9.348394E4,5.450595E3,1.8266884E5,3.317332E4,7.1825E4,6.6706743E3,1.437588E4,7.975223E4,3.345933E4,8.951321E3],"tree_param":{"num_deleted":"0","num_feature":"29","num_nodes":"65","size_leaf_vector":"0"}},{"base_weights":[-1.091643E-3,8.367276E-3,-3.0148643E-1,-4.131532E-2,6.236416E-2,-5.105192E-2,2.1695305E-1,2.7621308E-1,4.8936106E-2,-3.7009187E-2,-2.0302914E-1,1.6189547E-1,5.8780754E-1,3.2829788E-1,3.3021975E-2,6.739542E-2,-1.05622046E-1,-1.5862377E-1,-1.38742E-2,-2.3635495E-1,-2.879374E-2,2.3565109E-1,-8.470876E-2,2.8738013E-1,7.0199215E-1,2.1868902E-1,4.61911E-1,7.480171E-1,-2.7142063E-2,-4.2293157E-2,9.520904E-2,2.1964666E-2,-1.46234E-1,-5.7385903E-2,-1.0780488E-2,9.486811E-2,-6.1043175E-3,-7.732583E-2,1.513186E-2,-1.9636609E-1,4.5163315E-3,-4.2426553E-2,8.6429864E-2,-5.9660256E-2,9.966782E-2,5.5260763E-2,1.7597196E-1,2.42484E-1,1.2726909E-1,-1.4463682E-3,9.2353545E-2,2.1448964E-2,1.5143913E-1,4.6672925E-2,2.7438468E-1,-3.45235E-2,1.3311395E-1,-2.7428586E-2,2.17851E-2,2.557976E-2,1.0015081E-1,-1.6170513E-2,4.8286993E-2,-5.566242E-2,8.45917E-3],"categories":[],"categories_nodes":[],"categories_segments":[],"categories_sizes":[],"default_left":[0,0,0,0,0,0,0,0,0,0,0,0,0,0,0,0,0,0,0,0,0,0,0,0,0,0,0,0,0,0,0,0,0,0,0,0,0,0,0,0,0,0,0,0,0,0,0,0,0,0,0,0,0,0,0,0,0,0,0,0,0,0,0,0,0],"id":15,"left_children":[1,3,-1,5,7,9,11,13,15,17,19,21,23,25,27,29,31,33,35,37,39,41,43,45,47,49,51,53,55,57,59,61,63,-1,-1,-1,-1,-1,-1,-1,-1,-1,-1,-1,-1,-1,-1,-1,-1,-1,-1,-1,-1,-1,-1,-1,-1,-1,-1,-1,-1,-1,-1,-1,-1],"loss_changes":[8.419703E3,2.3565752E3,0E0,1.150448E3,1.2087462E3,9.408928E2,3.392757E2,3.1500464E2,1.1300117E3,1.1354999E3,2.1652368E2,2.6327356E2,7.349042E1,2.998745E2,1.8877885E2,1.0794338E3,2.189617E2,2.584807E2,7.2459375E2,1.9211426E2,1.6432533E2,2.2038885E2,1.5870471E2,1.8207409E1,4.5591125E1,2.2426514E2,1.5450134E2,3.34758E1,1.6767564E2,4.040993E2,6.696599E2,1.0760807E2,2.1978387E2,0E0,0E0,0E0,0E0,0E0,0E0,0E0,0E0,0E0,0E0,0E0,0E0,0E0,0E0,0E0,0E0,0E0,0E0,0E0,0E0,0E0,0E0,0E0,0E0,0E0,0E0,0E0,0E0,0E0,0E0,0E0,0E0],"parents":[2147483647,0,0,1,1,3,3,4,4,5,5,6,6,7,7,8,8,9,9,10,10,11,11,12,12,13,13,14,14,15,15,16,16,17,17,18,18,19,19,20,20,21,21,22,22,23,23,24,24,25,25,26,26,27,27,28,28,29,29,30,30,31,31,32,32],"right_children":[2,4,-1,6,8,10,12,14,16,18,20,22,24,26,28,30,32,34,36,38,40,42,44,46,48,50,52,54,56,58,60,62,64,-1,-1,-1,-1,-1,-1,-1,-1,-1,-1,-1,-1,-1,-1,-1,-1,-1,-1,-1,-1,-1,-1,-1,-1,-1,-1,-1,-1,-1,-1,-1,-1],"split_conditions":[7.0923144E-1,-3.6070508E-1,-3.0148643E-1,1.1522498E0,-8.6458844E-1,1.4568026E0,3.8413284E0,3.9741242E-1,1.3299869E0,-1.1537635E0,6.687062E-1,2.315358E0,9.556843E-1,7.3341584E-1,1.7015192E-1,-1.0194391E0,4.6069735E-1,4.6955794E-1,-1.7089677E0,5.6748384E-1,1.9363026E-1,-9.423089E-1,2.3033316E0,1.7758791E0,2.315358E0,-2.786687E-1,-9.675354E-1,4.2902398E-1,4.530436E0,-4.7326002E-1,1.2766607E0,-3.440419E-1,6.1466175E-1,-5.7385903E-2,-1.0780488E-2,9.486811E-2,-6.1043175E-3,-7.732583E-2,1.513186E-2,-1.9636609E-1,4.5163315E-3,-4.2426553E-2,8.6429864E-2,-5.9660256E-2,9.966782E-2,5.5260763E-2,1.7597196E-1,2.42484E-1,1.2726909E-1,-1.4463682E-3,9.2353545E-2,2.1448964E-2,1.5143913E-1,4.6672925E-2,2.7438468E-1,-3.45235E-2,1.3311395E-1,-2.7428586E-2,2.17851E-2,2.557976E-2,1.0015081E-1,-1.6170513E-2,4.8286993E-2,-5.566242E-2,8.45917E-3],"split_indices":[0,0,0,21,26,2,21,17,2,2,17,13,28,13,10,2,8,17,8,18,5,18,4,4,13,18,18,15,4,8,20,4,17,0,0,0,0,0,0,0,0,0,0,0,0,0,0,0,0,0,0,0,0,0,0,0,0,0,0,0,0,0,0,0,0],"split_type":[0,0,0,0,0,0,0,0,0,0,0,0,0,0,0,0,0,0,0,0,0,0,0,0,0,0,0,0,0,0,0,0,0,0,0,0,0,0,0,0,0,0,0,0,0,0,0,0,0,0,0,0,0,0,0,0,0,0,0,0,0,0,0,0,0],"sum_hessian":[8.867065E5,8.7843044E5,8.276036E3,4.5749188E5,4.209386E5,4.40872E5,1.661987E4,2.4868875E4,3.9606972E5,4.0358216E5,3.7289844E4,1.4472671E4,2.1471973E3,2.0481877E4,4.3869995E3,3.5381334E5,4.225636E4,6.4502664E4,3.390795E5,3.1302328E4,5.9875166E3,1.1140699E4,3.3319714E3,5.923091E2,1.5548881E3,1.1253093E4,9.228783E3,3.3960992E2,4.0473896E3,7.156843E4,2.8224494E5,1.0203009E4,3.205335E4,5.0940562E4,1.3562104E4,6.520779E3,3.3255872E5,2.9129102E4,2.173228E3,3.9117062E2,5.596346E3,1.360173E3,9.780526E3,2.6161736E3,7.157979E2,4.4162805E2,1.5068106E2,1.1231829E3,4.317052E2,3.2090642E3,8.044029E3,9.136867E2,8.315097E3,7.4964066E1,2.6464587E2,3.411094E3,6.3629553E2,5.013217E4,2.1436258E4,2.70956E5,1.1288922E4,6.6007275E3,3.6022815E3,2.6158559E4,5.8947905E3],"tree_param":{"num_deleted":"0","num_feature":"29","num_nodes":"65","size_leaf_vector":"0"}},{"base_weights":[-9.3755836E-4,5.33872E-3,-3.0104977E-1,-1.05012015E-1,2.3212219E-2,-1.3189875E-1,3.7595645E-1,-1.8514466E-2,7.502562E-2,-8.2436934E-2,-3.3365577E-1,4.4313046E-1,-5.475784E-1,-4.773439E-2,1.9972843E-1,9.781817E-2,-2.7968898E-1,-2.0411374E-1,-2.2040421E-2,-4.2195174E-1,-1.4453581E-1,2.0320566E-1,4.9853078E-1,-4.3106315E-1,-8.3609277E-1,-4.5210886E-1,-1.1578095E-2,-9.892867E-2,3.5882992E-1,1.16075866E-1,-1.529984E-1,1.0764191E-1,-4.153462E-1,-7.619158E-2,8.349521E-3,4.540203E-2,-1.3181933E-2,-1.3869242E-1,4.7165584E-3,-1.2798925E-1,-9.866656E-3,-2.2992551E-2,1.1610347E-1,1.5316588E-1,-1.9487327E-1,-2.6358375E-1,-9.1629796E-2,-5.6207404E-2,-2.7937618E-1,5.9480682E-2,-2.0567532E-1,-2.6008585E-2,2.479969E-2,-1.2707496E-1,1.362581E-1,1.4910282E-1,-4.9675565E-2,2.4590435E-2,9.430773E-2,-6.562312E-2,6.968364E-2,1.00595735E-1,-1.412243E-1,-1.8656655E-1,-4.414469E-3],"categories":[],"categories_nodes":[],"categories_segments":[],"categories_sizes":[],"default_left":[1,0,0,0,0,0,0,0,0,0,0,0,0,0,0,0,0,0,0,0,0,0,0,0,0,0,0,0,0,0,0,0,0,0,0,0,0,0,0,0,0,0,0,0,0,0,0,0,0,0,0,0,0,0,0,0,0,0,0,0,0,0,0,0,0],"id":16,"left_children":[1,3,-1,5,7,9,11,13,15,17,19,21,23,25,27,29,31,33,35,37,39,41,43,45,47,49,51,53,55,57,59,61,63,-1,-1,-1,-1,-1,-1,-1,-1,-1,-1,-1,-1,-1,-1,-1,-1,-1,-1,-1,-1,-1,-1,-1,-1,-1,-1,-1,-1,-1,-1,-1,-1],"loss_changes":[5.543663E3,1.7268661E3,0E0,1.578271E3,1.6290527E3,1.1534031E3,4.0109412E2,2.6616123E3,2.7175137E3,6.8216956E2,3.7993823E2,7.996741E1,1.4382294E1,5.381736E3,2.341793E3,1.4462971E3,1.0663795E3,3.5609888E2,2.3555307E2,2.7401172E2,2.281501E2,5.824225E1,6.787024E1,1.7412548E1,7.5482407E0,4.587566E3,2.391977E3,3.076254E3,2.3300654E3,1.9909863E3,5.4288947E2,6.934641E2,1.2436992E3,0E0,0E0,0E0,0E0,0E0,0E0,0E0,0E0,0E0,0E0,0E0,0E0,0E0,0E0,0E0,0E0,0E0,0E0,0E0,0E0,0E0,0E0,0E0,0E0,0E0,0E0,0E0,0E0,0E0,0E0,0E0,0E0],"parents":[2147483647,0,0,1,1,3,3,4,4,5,5,6,6,7,7,8,8,9,9,10,10,11,11,12,12,13,13,14,14,15,15,16,16,17,17,18,18,19,19,20,20,21,21,22,22,23,23,24,24,25,25,26,26,27,27,28,28,29,29,30,30,31,31,32,32],"right_children":[2,4,-1,6,8,10,12,14,16,18,20,22,24,26,28,30,32,34,36,38,40,42,44,46,48,50,52,54,56,58,60,62,64,-1,-1,-1,-1,-1,-1,-1,-1,-1,-1,-1,-1,-1,-1,-1,-1,-1,-1,-1,-1,-1,-1,-1,-1,-1,-1,-1,-1,-1,-1,-1,-1],"split_conditions":[9.0543586E-1,-6.9336337E-1,-3.0104977E-1,7.072629E-1,-1.8668889E-1,-4.501411E-1,2.145443E0,8.999872E-1,2.315358E0,-7.545776E-1,7.3341584E-1,-5.0434923E-1,9.166983E-1,-1.240354E0,-2.1339242E0,1.3852737E0,-6.383147E-2,-3.7247044E-1,-6.771172E-1,5.389834E-1,-4.3159744E-1,8.9356595E-1,3.106329E0,-6.307382E-1,-6.618053E-1,7.704814E-2,8.022013E-1,2.9860888E0,9.863978E-1,5.9874105E-1,3.6903524E0,8.9356595E-1,2.568488E0,-7.619158E-2,8.349521E-3,4.540203E-2,-1.3181933E-2,-1.3869242E-1,4.7165584E-3,-1.2798925E-1,-9.866656E-3,-2.2992551E-2,1.1610347E-1,1.5316588E-1,-1.9487327E-1,-2.6358375E-1,-9.1629796E-2,-5.6207404E-2,-2.7937618E-1,5.9480682E-2,-2.0567532E-1,-2.6008585E-2,2.479969E-2,-1.2707496E-1,1.362581E-1,1.4910282E-1,-4.9675565E-2,2.4590435E-2,9.430773E-2,-6.562312E-2,6.968364E-2,1.00595735E-1,-1.412243E-1,-1.8656655E-1,-4.414469E-3],"split_indices":[0,15,0,18,18,25,18,15,13,25,13,25,14,23,23,18,17,1,24,18,23,18,13,19,23,27,27,15,17,18,1,18,25,0,0,0,0,0,0,0,0,0,0,0,0,0,0,0,0,0,0,0,0,0,0,0,0,0,0,0,0,0,0,0,0],"split_type":[0,0,0,0,0,0,0,0,0,0,0,0,0,0,0,0,0,0,0,0,0,0,0,0,0,0,0,0,0,0,0,0,0,0,0,0,0,0,0,0,0,0,0,0,0,0,0,0,0,0,0,0,0,0,0,0,0,0,0,0,0,0,0,0,0],"sum_hessian":[8.8101356E5,8.755335E5,5.4800566E3,1.2204214E5,7.534914E5,1.155817E5,6.460433E3,4.173717E5,3.361197E5,9.282626E4,2.2755443E4,6.0228745E3,4.375583E2,3.6808994E5,4.928174E4,3.1582662E5,2.0293043E4,3.0791105E4,6.2035156E4,1.5511999E4,7.243444E3,1.1307122E3,4.8921626E3,3.1346213E2,1.2409616E2,3.0209814E4,3.3788012E5,1.7128805E4,3.2152934E4,2.9439712E5,2.1429516E4,5.26384E3,1.5029204E4,2.53433E4,5.4478037E3,6.9561724E3,5.5078984E4,1.4202391E4,1.3096085E3,2.0531047E3,5.1903394E3,4.4847882E2,6.8223334E2,4.842016E3,5.0146484E1,6.739146E1,2.4607066E2,1.6254484E1,1.0784168E2,7.980155E3,2.2229658E4,1.8801912E5,1.4986102E5,1.0793693E4,6.335112E3,2.5447707E4,6.705227E3,2.5119002E5,4.3207117E4,1.8306115E4,3.1234004E3,3.7773462E3,1.4864937E3,9.9163545E3,5.1128496E3],"tree_param":{"num_deleted":"0","num_feature":"29","num_nodes":"65","size_leaf_vector":"0"}},{"base_weights":[-2.751876E-4,6.056407E-3,-3.0321494E-1,-1.6793381E-2,1.0034648E-1,-1.13740005E-1,2.6285988E-3,2.8404966E-1,7.385939E-2,-2.857808E-1,1.8910259E-2,8.385072E-3,-7.044269E-1,3.345623E-1,-2.779592E-2,1.1604133E-1,-3.5652112E-2,-4.8772854E-1,-7.047266E-2,-1.40794E-1,1.7817765E-1,-1.3993212E-2,1.1763605E-1,4.1126886E-1,-1.0918168E0,4.0352157E-1,1.539866E-1,4.4933695E-1,-1.595166E-1,2.6726857E-1,9.043847E-2,7.246968E-2,-1.6508093E-1,-1.6964836E-1,1.3838977E-1,-3.9606392E-2,6.768253E-2,2.192459E-1,-5.6355078E-2,-2.9488241E-2,1.02127336E-1,-1.0746885E-2,5.8937795E-2,6.750353E-2,-1.128484E-2,2.005258E-1,-1.1314571E-1,-4.4078687E-1,-1.4764813E-1,7.40229E-2,1.5627997E-1,2.608847E-2,1.6941836E-1,1.8356603E-1,-6.1321434E-2,-1.8667555E-1,4.6555214E-2,3.6075604E-1,7.7847295E-2,-7.532374E-3,4.5547694E-2,-3.0798513E-2,5.3040083E-2,-8.540712E-2,6.445618E-2],"categories":[],"categories_nodes":[],"categories_segments":[],"categories_sizes":[],"default_left":[0,0,0,0,0,0,0,0,0,0,0,0,0,0,0,0,0,0,0,0,0,0,0,0,0,0,0,0,0,0,0,0,0,0,0,0,0,0,0,0,0,0,0,0,0,0,0,0,0,0,0,0,0,0,0,0,0,0,0,0,0,0,0,0,0],"id":17,"left_children":[1,3,-1,5,7,9,11,13,15,17,19,21,23,25,27,29,31,33,35,37,39,41,43,45,47,49,51,53,55,57,59,61,63,-1,-1,-1,-1,-1,-1,-1,-1,-1,-1,-1,-1,-1,-1,-1,-1,-1,-1,-1,-1,-1,-1,-1,-1,-1,-1,-1,-1,-1,-1,-1,-1],"loss_changes":[5.574574E3,1.8656204E3,0E0,1.3123895E3,8.218495E2,2.6548174E3,2.3634434E3,3.3528833E2,6.819452E2,2.2020947E3,1.6707909E3,1.4082052E3,2.0272483E3,2.2803638E2,1.8660541E2,4.126173E2,5.7448895E2,1.9289697E3,4.4674396E2,1.3453647E3,1.4752957E3,2.1962974E3,1.6324282E3,2.4543365E2,7.8723145E2,2.4386377E2,1.3935504E2,6.838646E1,3.389084E2,1.1192798E2,6.465051E2,4.0870657E2,8.491778E2,0E0,0E0,0E0,0E0,0E0,0E0,0E0,0E0,0E0,0E0,0E0,0E0,0E0,0E0,0E0,0E0,0E0,0E0,0E0,0E0,0E0,0E0,0E0,0E0,0E0,0E0,0E0,0E0,0E0,0E0,0E0,0E0],"parents":[2147483647,0,0,1,1,3,3,4,4,5,5,6,6,7,7,8,8,9,9,10,10,11,11,12,12,13,13,14,14,15,15,16,16,17,17,18,18,19,19,20,20,21,21,22,22,23,23,24,24,25,25,26,26,27,27,28,28,29,29,30,30,31,31,32,32],"right_children":[2,4,-1,6,8,10,12,14,16,18,20,22,24,26,28,30,32,34,36,38,40,42,44,46,48,50,52,54,56,58,60,62,64,-1,-1,-1,-1,-1,-1,-1,-1,-1,-1,-1,-1,-1,-1,-1,-1,-1,-1,-1,-1,-1,-1,-1,-1,-1,-1,-1,-1,-1,-1,-1,-1],"split_conditions":[6.828803E-1,2.7620715E-1,-3.0321494E-1,-4.0585056E-1,-9.763317E-1,1.6557997E-1,1.5386021E0,8.8002235E-1,7.574733E-1,-9.811258E-2,6.734358E-1,4.4585577E-1,-2.6220396E-1,6.6163525E-2,-1.7471853E-1,-5.0537777E-1,3.596958E-1,3.705662E-1,1.223041E0,-9.5354915E-1,-1.6523051E0,-2.1792303E-1,-4.8075053E-1,2.0314837E-1,1.5644778E0,7.3341584E-1,4.4924345E0,1.7907227E0,1.7907227E0,-1.364545E0,-2.7314553E-1,-1.9355212E0,2.2539678E0,-1.6964836E-1,1.3838977E-1,-3.9606392E-2,6.768253E-2,2.192459E-1,-5.6355078E-2,-2.9488241E-2,1.02127336E-1,-1.0746885E-2,5.8937795E-2,6.750353E-2,-1.128484E-2,2.005258E-1,-1.1314571E-1,-4.4078687E-1,-1.4764813E-1,7.40229E-2,1.5627997E-1,2.608847E-2,1.6941836E-1,1.8356603E-1,-6.1321434E-2,-1.8667555E-1,4.6555214E-2,3.6075604E-1,7.7847295E-2,-7.532374E-3,4.5547694E-2,-3.0798513E-2,5.3040083E-2,-8.540712E-2,6.445618E-2],"split_indices":[0,24,0,23,26,15,15,18,10,17,27,26,17,17,15,25,17,18,17,22,23,25,14,18,18,13,4,18,18,23,25,23,1,0,0,0,0,0,0,0,0,0,0,0,0,0,0,0,0,0,0,0,0,0,0,0,0,0,0,0,0,0,0,0,0],"split_type":[0,0,0,0,0,0,0,0,0,0,0,0,0,0,0,0,0,0,0,0,0,0,0,0,0,0,0,0,0,0,0,0,0,0,0,0,0,0,0,0,0,0,0,0,0,0,0,0,0,0,0,0,0,0,0,0,0,0,0,0,0,0,0,0,0],"sum_hessian":[8.713378E5,8.659129E5,5.4249614E3,6.9700494E5,1.6890789E5,1.1632968E5,5.8067525E5,2.1283674E4,1.4762422E5,5.0644777E4,6.56849E4,5.759869E5,4.6883945E3,1.8316674E4,2.9670012E3,1.0657378E5,4.105044E4,2.6132547E4,2.4512229E4,3.2797527E4,3.288737E4,4.780641E5,9.792278E4,1.2083229E3,3.4800715E3,1.3253946E4,5.0627266E3,6.413658E2,2.3256355E3,1.5429227E4,9.1144555E4,2.2366463E4,1.8683977E4,2.4153727E4,1.9788191E3,2.0294094E4,4.2181357E3,1.6792158E3,3.1118312E4,1.2162545E4,2.0724828E4,4.331367E5,4.492741E4,5.788668E4,4.00361E4,9.1125977E2,2.9706308E2,2.134802E3,1.3452697E3,5.676832E3,7.5771147E3,4.353527E3,7.0919965E2,5.1370056E2,1.2766522E2,9.410055E2,1.3846299E3,1.2598554E2,1.5303241E4,3.1622844E4,5.9521715E4,8.35E3,1.4016462E4,1.4210529E4,4.473448E3],"tree_param":{"num_deleted":"0","num_feature":"29","num_nodes":"65","size_leaf_vector":"0"}},{"base_weights":[-9.484443E-5,4.482842E-3,-6.9828475E-1,-1.4577158E-1,1.5575864E-2,-4.204591E-1,-3.004921E-1,-1.6689958E-1,1.2656905E-1,3.6363743E-2,-7.551691E-2,-6.3940966E-1,-2.534019E-1,-2.9119134E-1,-1.4280699E-1,1.2636807E-2,2.4291548E-1,2.9005967E-2,2.575805E-1,1.417642E-1,-9.2882805E-2,-6.8423384E-1,-3.5890976E-1,-3.5887703E-1,-1.444056E-1,-3.1933242E-1,3.1612277E-1,-1.5370372E-1,1.0285651E-1,-1.3232937E-1,1.4228755E-1,1.514091E-1,3.6909288E-1,-7.3109586E-3,6.882238E-2,3.371332E-1,4.032463E-2,1.7239545E-1,-4.453032E-1,-1.0470651E-1,2.180854E-1,-6.954158E-1,-1.027849E-1,-4.251021E-1,1.4999184E-1,-4.901793E-1,-1.4233024E-1,-3.3796063E-1,-1.0898598E-1,-7.177897E-2,-1.1848813E-1,1.1339183E-1,-6.578294E-2,-3.2945383E-2,-6.389429E-2,4.1117415E-2,-1.44916E-1,-6.027151E-2,1.2272324E-1,3.753244E-2,2.3019955E-1,3.016193E-2,1.7323239E-1,1.2555553E-1,5.636588E-2,-4.4108434E-3,5.4832716E-2,1.8479018E-2,8.184336E-2,8.5100934E-2,2.0109172E-1,5.9664194E-2,-3.007482E-2,1.7650373E-2,8.933431E-2,-1.9952056E-1,-4.3505915E-2,-3.637331E-2,1.6331254E-2,4.5188166E-2,1.24774225E-1,-2.249426E-1,-1.8499629E-1,1.2489381E-1,-5.411859E-2,-1.4766292E-1,-7.1982734E-2,-7.923361E-2,9.084483E-2,-1.8741265E-1,-1.269704E-1,-6.0248997E-2,1.0630275E-2,-1.6240692E-1,-3.809113E-2,-2.327475E-2,-1.2240506E-1],"categories":[],"categories_nodes":[],"categories_segments":[],"categories_sizes":[],"default_left":[0,0,0,0,0,0,0,0,0,0,0,0,0,0,0,0,0,0,0,0,0,0,0,0,0,0,0,0,0,0,0,0,0,0,0,0,0,0,0,0,0,0,0,0,0,0,0,0,0,0,0,0,0,0,0,0,0,0,0,0,0,0,0,0,0,0,0,0,0,0,0,0,0,0,0,0,0,0,0,0,0,0,0,0,0,0,0,0,0,0,0,0,0,0,0,0,0],"id":18,"left_children":[1,3,5,7,9,11,-1,13,15,17,19,21,23,25,27,29,31,33,35,37,39,41,43,45,47,49,51,53,55,57,59,61,63,65,67,69,71,73,75,77,79,81,83,85,87,89,91,93,95,-1,-1,-1,-1,-1,-1,-1,-1,-1,-1,-1,-1,-1,-1,-1,-1,-1,-1,-1,-1,-1,-1,-1,-1,-1,-1,-1,-1,-1,-1,-1,-1,-1,-1,-1,-1,-1,-1,-1,-1,-1,-1,-1,-1,-1,-1,-1,-1],"loss_changes":[2.765776E3,1.4329701E3,4.7464746E2,3.401305E2,1.516072E3,1.07518616E2,0E0,1.6421692E2,5.6412918E1,1.061001E3,5.6132E2,1.5765381E1,1.9164436E1,1.5229736E2,1.230177E2,4.0453747E1,2.4255913E1,9.12256E2,3.6264417E2,1.9806154E2,5.064995E2,7.0600586E0,6.0449085E0,2.4064217E1,5.6101856E0,5.144641E1,1.3158932E1,1.1443347E2,3.918554E1,3.781139E1,1.2103933E1,2.6429441E1,7.842613E0,4.635975E2,4.4355396E2,2.7339197E2,1.25398865E2,1.48986E2,3.5951416E1,3.4927136E2,6.727727E1,4.147217E0,9.5616317E-1,1.8374786E0,1.4200989E0,4.490738E0,3.353619E0,5.378874E0,6.5207624E0,0E0,0E0,0E0,0E0,0E0,0E0,0E0,0E0,0E0,0E0,0E0,0E0,0E0,0E0,0E0,0E0,0E0,0E0,0E0,0E0,0E0,0E0,0E0,0E0,0E0,0E0,0E0,0E0,0E0,0E0,0E0,0E0,0E0,0E0,0E0,0E0,0E0,0E0,0E0,0E0,0E0,0E0,0E0,0E0,0E0,0E0,0E0,0E0],"parents":[2147483647,0,0,1,1,2,2,3,3,4,4,5,5,7,7,8,8,9,9,10,10,11,11,12,12,13,13,14,14,15,15,16,16,17,17,18,18,19,19,20,20,21,21,22,22,23,23,24,24,25,25,26,26,27,27,28,28,29,29,30,30,31,31,32,32,33,33,34,34,35,35,36,36,37,37,38,38,39,39,40,40,41,41,42,42,43,43,44,44,45,45,46,46,47,47,48,48],"right_children":[2,4,6,8,10,12,-1,14,16,18,20,22,24,26,28,30,32,34,36,38,40,42,44,46,48,50,52,54,56,58,60,62,64,66,68,70,72,74,76,78,80,82,84,86,88,90,92,94,96,-1,-1,-1,-1,-1,-1,-1,-1,-1,-1,-1,-1,-1,-1,-1,-1,-1,-1,-1,-1,-1,-1,-1,-1,-1,-1,-1,-1,-1,-1,-1,-1,-1,-1,-1,-1,-1,-1,-1,-1,-1,-1,-1,-1,-1,-1,-1,-1],"split_conditions":[6.703883E-1,-1.5390851E0,1.0963368E0,2.1233726E0,1.0488234E0,-5.6603384E-1,-3.004921E-1,-1.7820013E0,7.165738E-1,1.2280394E0,-3.4107733E-1,-2.4130182E-2,-2.1544398E-1,1.6676614E0,7.497635E-1,-1.8136819E-1,-1.4413607E-1,-3.613887E-1,2.315358E0,2.1560574E0,1.9100337E0,1.3553264E0,7.23521E-1,1.4318407E-1,-8.9492327E-1,-5.0327104E-1,8.6658394E-1,1.0344003E-1,3.106329E0,6.0797685E-1,-1.3110846E0,5.4566914E-1,8.630944E-1,1.5657874E0,1.6068381E0,3.6531637E0,4.1673246E-1,-1.6374445E-1,7.8048563E-1,5.570489E-1,2.4688058E0,-5.969659E-1,-8.12524E-1,-4.5581332E-1,3.0945617E-1,-3.5775957E-1,7.264239E-1,1.0496818E0,8.226082E-1,-7.177897E-2,-1.1848813E-1,1.1339183E-1,-6.578294E-2,-3.2945383E-2,-6.389429E-2,4.1117415E-2,-1.44916E-1,-6.027151E-2,1.2272324E-1,3.753244E-2,2.3019955E-1,3.016193E-2,1.7323239E-1,1.2555553E-1,5.636588E-2,-4.4108434E-3,5.4832716E-2,1.8479018E-2,8.184336E-2,8.5100934E-2,2.0109172E-1,5.9664194E-2,-3.007482E-2,1.7650373E-2,8.933431E-2,-1.9952056E-1,-4.3505915E-2,-3.637331E-2,1.6331254E-2,4.5188166E-2,1.24774225E-1,-2.249426E-1,-1.8499629E-1,1.2489381E-1,-5.411859E-2,-1.4766292E-1,-7.1982734E-2,-7.923361E-2,9.084483E-2,-1.8741265E-1,-1.269704E-1,-6.0248997E-2,1.0630275E-2,-1.6240692E-1,-3.809113E-2,-2.327475E-2,-1.2240506E-1],"split_indices":[0,5,0,22,2,25,0,2,20,21,8,18,15,17,8,15,15,0,13,18,8,17,26,18,18,25,27,11,13,18,8,18,28,22,22,21,17,7,4,4,8,19,18,15,17,18,18,15,18,0,0,0,0,0,0,0,0,0,0,0,0,0,0,0,0,0,0,0,0,0,0,0,0,0,0,0,0,0,0,0,0,0,0,0,0,0,0,0,0,0,0,0,0,0,0,0,0],"split_type":[0,0,0,0,0,0,0,0,0,0,0,0,0,0,0,0,0,0,0,0,0,0,0,0,0,0,0,0,0,0,0,0,0,0,0,0,0,0,0,0,0,0,0,0,0,0,0,0,0,0,0,0,0,0,0,0,0,0,0,0,0,0,0,0,0,0,0,0,0,0,0,0,0,0,0,0,0,0,0,0,0,0,0,0,0,0,0,0,0,0,0,0,0,0,0,0,0],"sum_hessian":[8.653592E5,8.597234E5,5.635788E3,5.9107207E4,8.006162E5,2.9429233E3,2.6928647E3,5.48522E4,4.2550083E3,6.5185894E5,1.4875725E5,1.2724205E3,1.6705028E3,8.904336E3,4.594786E4,2.1503684E3,2.1046396E3,6.308768E5,2.0982139E4,1.1008786E4,1.3774845E5,1.0958615E3,1.7655904E2,8.477994E2,8.227034E2,8.510462E3,3.9387466E2,4.3996703E4,1.9511584E3,1.01521124E3,1.1351572E3,1.2212004E3,8.834392E2,3.2993803E5,3.0093878E5,1.5357954E4,5.624184E3,1.0463539E4,5.452471E2,1.3270344E5,5.0450166E3,1.074992E3,2.086945E1,1.563831E2,2.0175938E1,5.269947E2,3.208047E2,1.25940994E2,6.9676245E2,4.1358745E3,4.3745874E3,3.5334933E2,4.0525322E1,2.5282045E4,1.8714658E4,1.8442683E3,1.068901E2,9.01637E2,1.1357419E2,1.10596E3,2.919728E1,1.0920436E3,1.2915683E2,6.9308514E2,1.9035402E2,3.1758894E5,1.2349078E4,2.9064494E5,1.0293865E4,1.3235875E4,2.122079E3,2.64285E3,2.981334E3,5.4914443E3,4.972095E3,3.141319E2,2.3111517E2,1.20211586E5,1.24918545E4,3.7634634E3,1.2815532E3,6.308242E2,4.4416782E2,2.1467516E0,1.8722698E1,1.1356525E2,4.281786E1,5.2424364E0,1.4933501E1,1.7233833E2,3.5465637E2,2.4127486E2,7.952984E1,6.3327316E1,6.261368E1,6.3168396E2,6.507845E1],"tree_param":{"num_deleted":"0","num_feature":"29","num_nodes":"97","size_leaf_vector":"0"}},{"base_weights":[-7.844845E-5,3.0484416E-3,-3.004059E-1,9.1003E-2,-1.28658395E-2,3.186985E-2,1.7262712E-1,2.4473678E-1,-1.7774256E-2,-3.512166E-2,3.3396193E-1,2.4276565E-1,-2.7226293E-1,3.286497E-2,2.8021416E-1,-9.839923E-2,-1.0934707E-3,9.520283E-2,-9.586555E-2,3.602662E-1,-2.821651E-1,-1.2519582E-1,2.920027E-1,-5.831393E-1,1.2008676E-1,-1.9614607E-1,1.3358687E-1,4.229161E-1,2.290651E-1,-1.9449306E-1,-7.811121E-2,1.2078595E-2,-1.4249642E-1,6.04979E-3,1.3446638E-1,-3.9882228E-2,8.964792E-2,7.438912E-2,1.4451446E-1,-1.0918716E-1,1.1347851E-2,-1.4623189E-1,5.1368386E-2,1.0831865E-1,1.6178325E-2,-4.3752722E-2,-2.3229234E-1,1.6797003E-1,1.15261935E-2,-1.14043094E-1,2.432079E-2,9.196059E-3,7.26304E-2,5.071101E-2,1.4498271E-1,-1.2163733E-2,7.901007E-2,-6.847219E-2,5.8147736E-2,-2.6101122E-2,3.0102607E-2,-2.1365896E-2,8.648029E-3,-4.8647456E-2,3.6310747E-2],"categories":[],"categories_nodes":[],"categories_segments":[],"categories_sizes":[],"default_left":[0,0,0,0,0,0,0,0,0,0,0,0,0,0,0,0,0,0,0,0,0,0,0,0,0,0,0,0,0,0,0,0,0,0,0,0,0,0,0,0,0,0,0,0,0,0,0,0,0,0,0,0,0,0,0,0,0,0,0,0,0,0,0,0,0],"id":19,"left_children":[1,3,-1,5,7,9,11,13,15,17,19,21,23,25,27,29,31,33,35,37,39,41,43,45,47,49,51,53,55,57,59,61,63,-1,-1,-1,-1,-1,-1,-1,-1,-1,-1,-1,-1,-1,-1,-1,-1,-1,-1,-1,-1,-1,-1,-1,-1,-1,-1,-1,-1,-1,-1,-1,-1],"loss_changes":[2.6977869E3,1.2023574E3,0E0,6.352367E2,9.1971875E2,1.5445677E3,1.7253381E3,1.0222168E2,9.5995447E2,4.945407E2,2.246134E2,8.653413E2,9.1853314E2,4.5048847E1,8.493518E1,2.3853369E2,1.1015632E3,5.2608356E2,6.235586E2,1.810907E2,1.4873833E1,6.054129E2,6.9256665E2,3.5111523E2,1.1957319E2,3.0463257E1,1.5141405E1,4.7004272E1,7.93414E1,2.795652E2,1.6033679E2,7.547804E2,2.6115613E2,0E0,0E0,0E0,0E0,0E0,0E0,0E0,0E0,0E0,0E0,0E0,0E0,0E0,0E0,0E0,0E0,0E0,0E0,0E0,0E0,0E0,0E0,0E0,0E0,0E0,0E0,0E0,0E0,0E0,0E0,0E0,0E0],"parents":[2147483647,0,0,1,1,3,3,4,4,5,5,6,6,7,7,8,8,9,9,10,10,11,11,12,12,13,13,14,14,15,15,16,16,17,17,18,18,19,19,20,20,21,21,22,22,23,23,24,24,25,25,26,26,27,27,28,28,29,29,30,30,31,31,32,32],"right_children":[2,4,-1,6,8,10,12,14,16,18,20,22,24,26,28,30,32,34,36,38,40,42,44,46,48,50,52,54,56,58,60,62,64,-1,-1,-1,-1,-1,-1,-1,-1,-1,-1,-1,-1,-1,-1,-1,-1,-1,-1,-1,-1,-1,-1,-1,-1,-1,-1,-1,-1,-1,-1,-1,-1],"split_conditions":[7.087343E-1,-6.7834955E-1,-3.004059E-1,-4.1908685E-2,-1.905239E0,2.0197678E-1,5.191677E-1,-9.0515864E-1,-1.0507892E0,-5.034271E-1,1.7934798E0,-9.3906957E-1,2.656063E0,-4.8647204E-1,-2.4633436E0,-1.6727064E0,1.5393019E0,-1.7280059E-1,1.5243869E0,9.311001E-2,9.691229E-1,1.537591E0,7.883426E-2,2.5392577E-1,-1.8734257E0,-2.1653485E-1,8.54724E-1,-6.2091315E-1,-1.6727064E0,1.3088918E0,7.951595E-1,-5.936515E-1,2.1172736E0,6.04979E-3,1.3446638E-1,-3.9882228E-2,8.964792E-2,7.438912E-2,1.4451446E-1,-1.0918716E-1,1.1347851E-2,-1.4623189E-1,5.1368386E-2,1.0831865E-1,1.6178325E-2,-4.3752722E-2,-2.3229234E-1,1.6797003E-1,1.15261935E-2,-1.14043094E-1,2.432079E-2,9.196059E-3,7.26304E-2,5.071101E-2,1.4498271E-1,-1.2163733E-2,7.901007E-2,-6.847219E-2,5.8147736E-2,-2.6101122E-2,3.0102607E-2,-2.1365896E-2,8.648029E-3,-4.8647456E-2,3.6310747E-2],"split_indices":[0,26,0,15,8,18,18,18,5,25,18,18,4,17,8,2,5,18,13,7,20,15,17,15,23,23,27,23,2,17,8,23,22,0,0,0,0,0,0,0,0,0,0,0,0,0,0,0,0,0,0,0,0,0,0,0,0,0,0,0,0,0,0,0,0],"split_type":[0,0,0,